<?xml version="1.0"?>
<opencv_storage>
<cascade>
  <stageType>BOOST</stageType>
  <featureType>HAAR</featureType>
  <height>44</height>
  <width>34</width>
  <stageParams>
    <boostType>GAB</boostType>
    <minHitRate>9.9500000476837158e-01</minHitRate>
    <maxFalseAlarm>5.0000000000000000e-01</maxFalseAlarm>
    <weightTrimRate>9.4999999999999996e-01</weightTrimRate>
    <maxDepth>1</maxDepth>
    <maxWeakCount>100</maxWeakCount></stageParams>
  <featureParams>
    <maxCatCount>0</maxCatCount>
    <featSize>1</featSize>
    <mode>ALL</mode></featureParams>
  <stageNum>14</stageNum>
  <stages>
    <!-- stage 0 -->
    <_>
      <maxWeakCount>5</maxWeakCount>
      <stageThreshold>-1.3383597135543823e+00</stageThreshold>
      <weakClassifiers>
        <_>
          <internalNodes>
            0 -1 7 -1.9851371645927429e-01</internalNodes>
          <leafValues>
            9.2485058307647705e-01 -9.1696751117706299e-01</leafValues></_>
        <_>
          <internalNodes>
            0 -1 29 3.0438620597124100e-02</internalNodes>
          <leafValues>
            -6.7262977361679077e-01 8.1830281019210815e-01</leafValues></_>
        <_>
          <internalNodes>
            0 -1 79 -8.4737084805965424e-02</internalNodes>
          <leafValues>
            7.8825247287750244e-01 -4.8521399497985840e-01</leafValues></_>
        <_>
          <internalNodes>
            0 -1 49 -9.1650617832783610e-06</internalNodes>
          <leafValues>
            4.2635831236839294e-01 -9.5841312408447266e-01</leafValues></_>
        <_>
          <internalNodes>
            0 -1 30 1.3696027053811122e-05</internalNodes>
          <leafValues>
            3.1009325385093689e-01 -9.6755349636077881e-01</leafValues></_></weakClassifiers></_>
    <!-- stage 1 -->
    <_>
      <maxWeakCount>3</maxWeakCount>
      <stageThreshold>-6.7119812965393066e-01</stageThreshold>
      <weakClassifiers>
        <_>
          <internalNodes>
            0 -1 5 -2.8569900989532471e-01</internalNodes>
          <leafValues>
            8.6575168371200562e-01 -7.7648633718490601e-01</leafValues></_>
        <_>
          <internalNodes>
            0 -1 19 2.2640541195869446e-02</internalNodes>
          <leafValues>
            -4.6897676587104797e-01 7.6457464694976807e-01</leafValues></_>
        <_>
          <internalNodes>
            0 -1 82 -1.2999367900192738e-02</internalNodes>
          <leafValues>
            6.2591999769210815e-01 -6.5928637981414795e-01</leafValues></_></weakClassifiers></_>
    <!-- stage 2 -->
    <_>
      <maxWeakCount>6</maxWeakCount>
      <stageThreshold>-9.9290490150451660e-01</stageThreshold>
      <weakClassifiers>
        <_>
          <internalNodes>
            0 -1 13 -1.0016524791717529e-01</internalNodes>
          <leafValues>
            7.8881984949111938e-01 -7.2946858406066895e-01</leafValues></_>
        <_>
          <internalNodes>
            0 -1 6 -5.1272932440042496e-02</internalNodes>
          <leafValues>
            6.1501884460449219e-01 -8.0111402273178101e-01</leafValues></_>
        <_>
          <internalNodes>
            0 -1 58 7.4751987995114177e-05</internalNodes>
          <leafValues>
            2.6665243506431580e-01 -9.8259007930755615e-01</leafValues></_>
        <_>
          <internalNodes>
            0 -1 60 -7.6851778430864215e-05</internalNodes>
          <leafValues>
            -9.1242164373397827e-01 3.5807362198829651e-01</leafValues></_>
        <_>
          <internalNodes>
            0 -1 84 1.5560621395707130e-02</internalNodes>
          <leafValues>
            -4.1870418190956116e-01 6.8666183948516846e-01</leafValues></_>
        <_>
          <internalNodes>
            0 -1 32 -1.5699001029133797e-02</internalNodes>
          <leafValues>
            3.3165583014488220e-01 -8.2842290401458740e-01</leafValues></_></weakClassifiers></_>
    <!-- stage 3 -->
    <_>
      <maxWeakCount>4</maxWeakCount>
      <stageThreshold>-3.0003434419631958e-01</stageThreshold>
      <weakClassifiers>
        <_>
          <internalNodes>
            0 -1 22 -1.1412230134010315e-01</internalNodes>
          <leafValues>
            7.9142791032791138e-01 -4.5447379350662231e-01</leafValues></_>
        <_>
          <internalNodes>
            0 -1 10 2.1896978840231895e-02</internalNodes>
          <leafValues>
            -4.1042143106460571e-01 6.3682401180267334e-01</leafValues></_>
        <_>
          <internalNodes>
            0 -1 41 -5.0015537453873549e-06</internalNodes>
          <leafValues>
            3.0469474196434021e-01 -9.6379613876342773e-01</leafValues></_>
        <_>
          <internalNodes>
            0 -1 68 -3.3528855419717729e-04</internalNodes>
          <leafValues>
            3.1892055273056030e-01 -7.8707933425903320e-01</leafValues></_></weakClassifiers></_>
    <!-- stage 4 -->
    <_>
      <maxWeakCount>6</maxWeakCount>
      <stageThreshold>-8.6639326810836792e-01</stageThreshold>
      <weakClassifiers>
        <_>
          <internalNodes>
            0 -1 47 -1.4037615619599819e-04</internalNodes>
          <leafValues>
            -8.8347965478897095e-01 6.0332918167114258e-01</leafValues></_>
        <_>
          <internalNodes>
            0 -1 36 5.9747990220785141e-02</internalNodes>
          <leafValues>
            -4.9718067049980164e-01 5.9849584102630615e-01</leafValues></_>
        <_>
          <internalNodes>
            0 -1 43 -7.7234813943505287e-03</internalNodes>
          <leafValues>
            5.2938646078109741e-01 -5.4076224565505981e-01</leafValues></_>
        <_>
          <internalNodes>
            0 -1 85 1.0005762800574303e-02</internalNodes>
          <leafValues>
            -3.6234635114669800e-01 7.2703784704208374e-01</leafValues></_>
        <_>
          <internalNodes>
            0 -1 18 1.7267048358917236e-02</internalNodes>
          <leafValues>
            -3.7356826663017273e-01 6.3901513814926147e-01</leafValues></_>
        <_>
          <internalNodes>
            0 -1 50 3.0492032237816602e-05</internalNodes>
          <leafValues>
            3.0413508415222168e-01 -9.5826750993728638e-01</leafValues></_></weakClassifiers></_>
    <!-- stage 5 -->
    <_>
      <maxWeakCount>4</maxWeakCount>
      <stageThreshold>-5.6383615732192993e-01</stageThreshold>
      <weakClassifiers>
        <_>
          <internalNodes>
            0 -1 64 -4.6232144086388871e-06</internalNodes>
          <leafValues>
            5.5741626024246216e-01 -9.1793894767761230e-01</leafValues></_>
        <_>
          <internalNodes>
            0 -1 16 -1.7653262475505471e-03</internalNodes>
          <leafValues>
            4.5422074198722839e-01 -6.8300759792327881e-01</leafValues></_>
        <_>
          <internalNodes>
            0 -1 26 -1.1691361578414217e-05</internalNodes>
          <leafValues>
            2.6882565021514893e-01 -9.5820373296737671e-01</leafValues></_>
        <_>
          <internalNodes>
            0 -1 72 -1.0032227146439254e-04</internalNodes>
          <leafValues>
            -7.0707046985626221e-01 3.2025596499443054e-01</leafValues></_></weakClassifiers></_>
    <!-- stage 6 -->
    <_>
      <maxWeakCount>5</maxWeakCount>
      <stageThreshold>-6.1881619691848755e-01</stageThreshold>
      <weakClassifiers>
        <_>
          <internalNodes>
            0 -1 3 -7.9113423824310303e-02</internalNodes>
          <leafValues>
            6.2372112274169922e-01 -6.1159062385559082e-01</leafValues></_>
        <_>
          <internalNodes>
            0 -1 66 -1.8035846005659550e-04</internalNodes>
          <leafValues>
            -7.9974132776260376e-01 3.5325270891189575e-01</leafValues></_>
        <_>
          <internalNodes>
            0 -1 71 5.7605746405897662e-05</internalNodes>
          <leafValues>
            2.6662310957908630e-01 -9.6896541118621826e-01</leafValues></_>
        <_>
          <internalNodes>
            0 -1 37 -8.0591516962158494e-06</internalNodes>
          <leafValues>
            1.3782845437526703e-01 -9.6010732650756836e-01</leafValues></_>
        <_>
          <internalNodes>
            0 -1 1 6.3252542167901993e-03</internalNodes>
          <leafValues>
            -5.0103175640106201e-01 3.8806417584419250e-01</leafValues></_></weakClassifiers></_>
    <!-- stage 7 -->
    <_>
      <maxWeakCount>7</maxWeakCount>
      <stageThreshold>-8.2193702459335327e-01</stageThreshold>
      <weakClassifiers>
        <_>
          <internalNodes>
            0 -1 62 -1.0576449130894616e-04</internalNodes>
          <leafValues>
            -6.3694673776626587e-01 6.1655122041702271e-01</leafValues></_>
        <_>
          <internalNodes>
            0 -1 8 -1.0686084628105164e-01</internalNodes>
          <leafValues>
            6.2632572650909424e-01 -3.6598128080368042e-01</leafValues></_>
        <_>
          <internalNodes>
            0 -1 61 6.7767468863166869e-05</internalNodes>
          <leafValues>
            2.8259927034378052e-01 -9.7078192234039307e-01</leafValues></_>
        <_>
          <internalNodes>
            0 -1 31 -8.7288626673398539e-06</internalNodes>
          <leafValues>
            2.0253616571426392e-01 -8.9816355705261230e-01</leafValues></_>
        <_>
          <internalNodes>
            0 -1 80 -2.1345933899283409e-02</internalNodes>
          <leafValues>
            5.8302235603332520e-01 -4.3240225315093994e-01</leafValues></_>
        <_>
          <internalNodes>
            0 -1 35 -5.6078294292092323e-03</internalNodes>
          <leafValues>
            5.6608885526657104e-01 -4.3031138181686401e-01</leafValues></_>
        <_>
          <internalNodes>
            0 -1 0 5.2869417704641819e-03</internalNodes>
          <leafValues>
            -3.8526654243469238e-01 5.5856919288635254e-01</leafValues></_></weakClassifiers></_>
    <!-- stage 8 -->
    <_>
      <maxWeakCount>6</maxWeakCount>
      <stageThreshold>-4.1710647940635681e-01</stageThreshold>
      <weakClassifiers>
        <_>
          <internalNodes>
            0 -1 33 -1.7655869305599481e-04</internalNodes>
          <leafValues>
            -6.7320263385772705e-01 5.8428388833999634e-01</leafValues></_>
        <_>
          <internalNodes>
            0 -1 74 -1.1442883312702179e-01</internalNodes>
          <leafValues>
            5.9916526079177856e-01 -3.7767314910888672e-01</leafValues></_>
        <_>
          <internalNodes>
            0 -1 53 -4.1570951907488052e-06</internalNodes>
          <leafValues>
            2.5694718956947327e-01 -9.6165508031845093e-01</leafValues></_>
        <_>
          <internalNodes>
            0 -1 28 -3.0517958104610443e-02</internalNodes>
          <leafValues>
            6.5965545177459717e-01 -3.3899292349815369e-01</leafValues></_>
        <_>
          <internalNodes>
            0 -1 34 -4.2362876229162794e-06</internalNodes>
          <leafValues>
            2.9817193746566772e-01 -8.2589703798294067e-01</leafValues></_>
        <_>
          <internalNodes>
            0 -1 75 1.8779285252094269e-02</internalNodes>
          <leafValues>
            -4.7265893220901489e-01 4.2124804854393005e-01</leafValues></_></weakClassifiers></_>
    <!-- stage 9 -->
    <_>
      <maxWeakCount>9</maxWeakCount>
      <stageThreshold>-8.8629108667373657e-01</stageThreshold>
      <weakClassifiers>
        <_>
          <internalNodes>
            0 -1 57 -1.1541320418473333e-04</internalNodes>
          <leafValues>
            -6.1239194869995117e-01 5.7148039340972900e-01</leafValues></_>
        <_>
          <internalNodes>
            0 -1 11 -2.3771299049258232e-02</internalNodes>
          <leafValues>
            2.9666429758071899e-01 -7.9900473356246948e-01</leafValues></_>
        <_>
          <internalNodes>
            0 -1 2 2.9767474625259638e-03</internalNodes>
          <leafValues>
            -3.8843652606010437e-01 5.2913570404052734e-01</leafValues></_>
        <_>
          <internalNodes>
            0 -1 27 -1.8190599803347141e-05</internalNodes>
          <leafValues>
            2.3032376170158386e-01 -7.9791557788848877e-01</leafValues></_>
        <_>
          <internalNodes>
            0 -1 38 3.5890672734240070e-05</internalNodes>
          <leafValues>
            1.3388155400753021e-01 -9.2675179243087769e-01</leafValues></_>
        <_>
          <internalNodes>
            0 -1 44 -1.1671831831336021e-02</internalNodes>
          <leafValues>
            3.6719214916229248e-01 -4.3251243233680725e-01</leafValues></_>
        <_>
          <internalNodes>
            0 -1 81 3.5041607916355133e-03</internalNodes>
          <leafValues>
            -3.0674335360527039e-01 5.5421471595764160e-01</leafValues></_>
        <_>
          <internalNodes>
            0 -1 42 -1.2048557982780039e-04</internalNodes>
          <leafValues>
            -7.6582378149032593e-01 2.3629105091094971e-01</leafValues></_>
        <_>
          <internalNodes>
            0 -1 40 1.3253837823867798e-04</internalNodes>
          <leafValues>
            1.3472925126552582e-01 -9.6821898221969604e-01</leafValues></_></weakClassifiers></_>
    <!-- stage 10 -->
    <_>
      <maxWeakCount>7</maxWeakCount>
      <stageThreshold>-1.0086137056350708e+00</stageThreshold>
      <weakClassifiers>
        <_>
          <internalNodes>
            0 -1 39 1.2472567148506641e-02</internalNodes>
          <leafValues>
            -7.2177052497863770e-01 5.3495597839355469e-01</leafValues></_>
        <_>
          <internalNodes>
            0 -1 14 5.1587410271167755e-03</internalNodes>
          <leafValues>
            -3.5039931535720825e-01 5.5882942676544189e-01</leafValues></_>
        <_>
          <internalNodes>
            0 -1 48 -2.5927904061973095e-04</internalNodes>
          <leafValues>
            2.2144928574562073e-01 -9.6195065975189209e-01</leafValues></_>
        <_>
          <internalNodes>
            0 -1 76 7.5082367402501404e-05</internalNodes>
          <leafValues>
            2.2637304663658142e-01 -7.3331952095031738e-01</leafValues></_>
        <_>
          <internalNodes>
            0 -1 17 -8.2138358266092837e-06</internalNodes>
          <leafValues>
            1.7986668646335602e-01 -8.5474479198455811e-01</leafValues></_>
        <_>
          <internalNodes>
            0 -1 86 -5.6760637089610100e-03</internalNodes>
          <leafValues>
            3.7868884205818176e-01 -4.4903379678726196e-01</leafValues></_>
        <_>
          <internalNodes>
            0 -1 46 -1.2866493314504623e-02</internalNodes>
          <leafValues>
            4.7020608186721802e-01 -3.3721411228179932e-01</leafValues></_></weakClassifiers></_>
    <!-- stage 11 -->
    <_>
      <maxWeakCount>8</maxWeakCount>
      <stageThreshold>-7.5911408662796021e-01</stageThreshold>
      <weakClassifiers>
        <_>
          <internalNodes>
            0 -1 65 5.6752360251266509e-05</internalNodes>
          <leafValues>
            5.4112857580184937e-01 -6.0866075754165649e-01</leafValues></_>
        <_>
          <internalNodes>
            0 -1 56 -3.8928003050386906e-05</internalNodes>
          <leafValues>
            -8.8914120197296143e-01 2.2673197090625763e-01</leafValues></_>
        <_>
          <internalNodes>
            0 -1 15 2.3489235900342464e-03</internalNodes>
          <leafValues>
            -5.8564889430999756e-01 2.8376320004463196e-01</leafValues></_>
        <_>
          <internalNodes>
            0 -1 45 -8.0201784148812294e-03</internalNodes>
          <leafValues>
            5.4076278209686279e-01 -2.9297980666160583e-01</leafValues></_>
        <_>
          <internalNodes>
            0 -1 70 -8.6775744421174750e-06</internalNodes>
          <leafValues>
            1.8074972927570343e-01 -8.5419666767120361e-01</leafValues></_>
        <_>
          <internalNodes>
            0 -1 4 -4.8378640785813332e-03</internalNodes>
          <leafValues>
            5.5851525068283081e-01 -3.0260232090950012e-01</leafValues></_>
        <_>
          <internalNodes>
            0 -1 83 -5.4766619578003883e-03</internalNodes>
          <leafValues>
            6.4866089820861816e-01 -2.5615662336349487e-01</leafValues></_>
        <_>
          <internalNodes>
            0 -1 67 -8.2906171883223578e-06</internalNodes>
          <leafValues>
            1.7199641466140747e-01 -8.5107702016830444e-01</leafValues></_></weakClassifiers></_>
    <!-- stage 12 -->
    <_>
      <maxWeakCount>10</maxWeakCount>
      <stageThreshold>-9.7321861982345581e-01</stageThreshold>
      <weakClassifiers>
        <_>
          <internalNodes>
            0 -1 59 -8.2549391663633287e-05</internalNodes>
          <leafValues>
            -6.4423960447311401e-01 5.1573514938354492e-01</leafValues></_>
        <_>
          <internalNodes>
            0 -1 59 2.7227293685427867e-05</internalNodes>
          <leafValues>
            2.0995880663394928e-01 -9.0497791767120361e-01</leafValues></_>
        <_>
          <internalNodes>
            0 -1 88 -1.9554200116544962e-03</internalNodes>
          <leafValues>
            5.5933600664138794e-01 -3.2980361580848694e-01</leafValues></_>
        <_>
          <internalNodes>
            0 -1 63 -6.6220374719705433e-05</internalNodes>
          <leafValues>
            2.0186410844326019e-01 -8.6808604001998901e-01</leafValues></_>
        <_>
          <internalNodes>
            0 -1 73 -9.5034539699554443e-03</internalNodes>
          <leafValues>
            5.7835865020751953e-01 -2.8675630688667297e-01</leafValues></_>
        <_>
          <internalNodes>
            0 -1 23 -1.5829240437597036e-03</internalNodes>
          <leafValues>
            4.3592396378517151e-01 -4.1172704100608826e-01</leafValues></_>
        <_>
          <internalNodes>
            0 -1 77 1.6262306598946452e-03</internalNodes>
          <leafValues>
            -2.1450592577457428e-01 7.0626878738403320e-01</leafValues></_>
        <_>
          <internalNodes>
            0 -1 21 -4.1202547436114401e-06</internalNodes>
          <leafValues>
            1.9492149353027344e-01 -8.7616467475891113e-01</leafValues></_>
        <_>
          <internalNodes>
            0 -1 55 -2.8116602916270494e-03</internalNodes>
          <leafValues>
            5.5245971679687500e-01 -2.9472017288208008e-01</leafValues></_>
        <_>
          <internalNodes>
            0 -1 20 -2.5809775106608868e-03</internalNodes>
          <leafValues>
            5.8130431175231934e-01 -2.6332530379295349e-01</leafValues></_></weakClassifiers></_>
    <!-- stage 13 -->
    <_>
      <maxWeakCount>10</maxWeakCount>
      <stageThreshold>-8.0993586778640747e-01</stageThreshold>
      <weakClassifiers>
        <_>
          <internalNodes>
            0 -1 54 3.5530552850104868e-05</internalNodes>
          <leafValues>
            4.6469834446907043e-01 -8.9221554994583130e-01</leafValues></_>
        <_>
          <internalNodes>
            0 -1 12 -1.6296110115945339e-03</internalNodes>
          <leafValues>
            3.1680843234062195e-01 -6.7002183198928833e-01</leafValues></_>
        <_>
          <internalNodes>
            0 -1 9 1.4515895396471024e-02</internalNodes>
          <leafValues>
            -3.1998378038406372e-01 5.6175541877746582e-01</leafValues></_>
        <_>
          <internalNodes>
            0 -1 52 7.5577045208774507e-06</internalNodes>
          <leafValues>
            -8.5420703887939453e-01 1.8194897472858429e-01</leafValues></_>
        <_>
          <internalNodes>
            0 -1 51 -4.0473183616995811e-05</internalNodes>
          <leafValues>
            2.6397347450256348e-01 -5.2718883752822876e-01</leafValues></_>
        <_>
          <internalNodes>
            0 -1 24 -7.2583282599225640e-04</internalNodes>
          <leafValues>
            -5.9044700860977173e-01 2.6508083939552307e-01</leafValues></_>
        <_>
          <internalNodes>
            0 -1 87 -3.9366103010252118e-04</internalNodes>
          <leafValues>
            6.6183960437774658e-01 -2.3214142024517059e-01</leafValues></_>
        <_>
          <internalNodes>
            0 -1 78 -5.9259552508592606e-03</internalNodes>
          <leafValues>
            5.8446061611175537e-01 -2.3618716001510620e-01</leafValues></_>
        <_>
          <internalNodes>
            0 -1 69 -1.5720454975962639e-02</internalNodes>
          <leafValues>
            1.9043630361557007e-01 -8.0451941490173340e-01</leafValues></_>
        <_>
          <internalNodes>
            0 -1 25 -4.5540131395682693e-05</internalNodes>
          <leafValues>
            -5.0432968139648438e-01 2.9220509529113770e-01</leafValues></_></weakClassifiers></_></stages>
  <features>
    <_>
      <rects>
        <_>
          0 14 4 22 -1.</_>
        <_>
          2 14 2 22 2.</_></rects>
      <tilted>0</tilted></_>
    <_>
      <rects>
        <_>
          0 17 12 4 -1.</_>
        <_>
          3 17 6 4 2.</_></rects>
      <tilted>0</tilted></_>
    <_>
      <rects>
        <_>
          1 19 8 3 -1.</_>
        <_>
          3 19 4 3 2.</_></rects>
      <tilted>0</tilted></_>
    <_>
      <rects>
        <_>
          3 14 28 17 -1.</_>
        <_>
          10 14 14 17 2.</_></rects>
      <tilted>0</tilted></_>
    <_>
      <rects>
        <_>
          3 20 9 8 -1.</_>
        <_>
          6 20 3 8 3.</_></rects>
      <tilted>0</tilted></_>
    <_>
      <rects>
        <_>
          4 10 27 24 -1.</_>
        <_>
          13 18 9 8 9.</_></rects>
      <tilted>0</tilted></_>
    <_>
      <rects>
        <_>
          4 15 27 8 -1.</_>
        <_>
          13 15 9 8 3.</_></rects>
      <tilted>0</tilted></_>
    <_>
      <rects>
        <_>
          5 11 27 21 -1.</_>
        <_>
          14 18 9 7 9.</_></rects>
      <tilted>0</tilted></_>
    <_>
      <rects>
        <_>
          6 11 9 24 -1.</_>
        <_>
          9 19 3 8 9.</_></rects>
      <tilted>0</tilted></_>
    <_>
      <rects>
        <_>
          6 24 11 6 -1.</_>
        <_>
          4 26 11 2 3.</_></rects>
      <tilted>1</tilted></_>
    <_>
      <rects>
        <_>
          7 8 9 7 -1.</_>
        <_>
          10 11 3 7 3.</_></rects>
      <tilted>1</tilted></_>
    <_>
      <rects>
        <_>
          7 13 21 10 -1.</_>
        <_>
          7 18 21 5 2.</_></rects>
      <tilted>0</tilted></_>
    <_>
      <rects>
        <_>
          7 15 21 2 -1.</_>
        <_>
          7 16 21 1 2.</_></rects>
      <tilted>0</tilted></_>
    <_>
      <rects>
        <_>
          8 11 19 24 -1.</_>
        <_>
          8 19 19 8 3.</_></rects>
      <tilted>0</tilted></_>
    <_>
      <rects>
        <_>
          8 13 8 12 -1.</_>
        <_>
          8 13 4 6 2.</_>
        <_>
          12 19 4 6 2.</_></rects>
      <tilted>0</tilted></_>
    <_>
      <rects>
        <_>
          8 14 12 12 -1.</_>
        <_>
          8 14 6 6 2.</_>
        <_>
          14 20 6 6 2.</_></rects>
      <tilted>0</tilted></_>
    <_>
      <rects>
        <_>
          8 14 20 2 -1.</_>
        <_>
          8 15 20 1 2.</_></rects>
      <tilted>0</tilted></_>
    <_>
      <rects>
        <_>
          8 22 2 2 -1.</_>
        <_>
          9 22 1 2 2.</_></rects>
      <tilted>0</tilted></_>
    <_>
      <rects>
        <_>
          8 22 10 8 -1.</_>
        <_>
          6 24 10 4 2.</_></rects>
      <tilted>1</tilted></_>
    <_>
      <rects>
        <_>
          9 7 9 9 -1.</_>
        <_>
          12 10 3 9 3.</_></rects>
      <tilted>1</tilted></_>
    <_>
      <rects>
        <_>
          9 17 4 4 -1.</_>
        <_>
          10 18 2 4 2.</_></rects>
      <tilted>1</tilted></_>
    <_>
      <rects>
        <_>
          9 20 2 2 -1.</_>
        <_>
          10 20 1 2 2.</_></rects>
      <tilted>0</tilted></_>
    <_>
      <rects>
        <_>
          11 8 14 28 -1.</_>
        <_>
          11 15 14 14 2.</_></rects>
      <tilted>0</tilted></_>
    <_>
      <rects>
        <_>
          11 11 15 2 -1.</_>
        <_>
          11 12 15 1 2.</_></rects>
      <tilted>0</tilted></_>
    <_>
      <rects>
        <_>
          11 13 7 4 -1.</_>
        <_>
          10 14 7 2 2.</_></rects>
      <tilted>1</tilted></_>
    <_>
      <rects>
        <_>
          11 17 2 1 -1.</_>
        <_>
          12 17 1 1 2.</_></rects>
      <tilted>0</tilted></_>
    <_>
      <rects>
        <_>
          11 19 2 4 -1.</_>
        <_>
          12 19 1 4 2.</_></rects>
      <tilted>0</tilted></_>
    <_>
      <rects>
        <_>
          11 25 1 2 -1.</_>
        <_>
          11 25 1 1 2.</_></rects>
      <tilted>1</tilted></_>
    <_>
      <rects>
        <_>
          12 10 9 8 -1.</_>
        <_>
          15 13 3 8 3.</_></rects>
      <tilted>1</tilted></_>
    <_>
      <rects>
        <_>
          12 10 8 8 -1.</_>
        <_>
          12 10 4 8 2.</_></rects>
      <tilted>1</tilted></_>
    <_>
      <rects>
        <_>
          12 20 8 1 -1.</_>
        <_>
          14 20 4 1 2.</_></rects>
      <tilted>0</tilted></_>
    <_>
      <rects>
        <_>
          12 20 8 2 -1.</_>
        <_>
          14 20 4 2 2.</_></rects>
      <tilted>0</tilted></_>
    <_>
      <rects>
        <_>
          13 18 9 8 -1.</_>
        <_>
          13 18 9 4 2.</_></rects>
      <tilted>1</tilted></_>
    <_>
      <rects>
        <_>
          13 21 8 1 -1.</_>
        <_>
          15 21 4 1 2.</_></rects>
      <tilted>0</tilted></_>
    <_>
      <rects>
        <_>
          13 21 9 1 -1.</_>
        <_>
          16 21 3 1 3.</_></rects>
      <tilted>0</tilted></_>
    <_>
      <rects>
        <_>
          13 24 8 9 -1.</_>
        <_>
          13 27 8 3 3.</_></rects>
      <tilted>0</tilted></_>
    <_>
      <rects>
        <_>
          14 7 8 12 -1.</_>
        <_>
          14 7 4 12 2.</_></rects>
      <tilted>1</tilted></_>
    <_>
      <rects>
        <_>
          14 16 3 2 -1.</_>
        <_>
          14 17 3 1 2.</_></rects>
      <tilted>0</tilted></_>
    <_>
      <rects>
        <_>
          14 17 4 1 -1.</_>
        <_>
          16 17 2 1 2.</_></rects>
      <tilted>0</tilted></_>
    <_>
      <rects>
        <_>
          14 17 6 18 -1.</_>
        <_>
          14 26 6 9 2.</_></rects>
      <tilted>0</tilted></_>
    <_>
      <rects>
        <_>
          14 19 6 3 -1.</_>
        <_>
          16 20 2 1 9.</_></rects>
      <tilted>0</tilted></_>
    <_>
      <rects>
        <_>
          14 19 9 2 -1.</_>
        <_>
          17 19 3 2 3.</_></rects>
      <tilted>0</tilted></_>
    <_>
      <rects>
        <_>
          14 20 6 1 -1.</_>
        <_>
          16 20 2 1 3.</_></rects>
      <tilted>0</tilted></_>
    <_>
      <rects>
        <_>
          14 21 6 12 -1.</_>
        <_>
          16 25 2 4 9.</_></rects>
      <tilted>0</tilted></_>
    <_>
      <rects>
        <_>
          14 22 6 12 -1.</_>
        <_>
          16 26 2 4 9.</_></rects>
      <tilted>0</tilted></_>
    <_>
      <rects>
        <_>
          14 23 6 6 -1.</_>
        <_>
          16 25 2 6 3.</_></rects>
      <tilted>1</tilted></_>
    <_>
      <rects>
        <_>
          15 0 6 15 -1.</_>
        <_>
          15 0 3 15 2.</_></rects>
      <tilted>1</tilted></_>
    <_>
      <rects>
        <_>
          15 20 6 1 -1.</_>
        <_>
          17 20 2 1 3.</_></rects>
      <tilted>0</tilted></_>
    <_>
      <rects>
        <_>
          15 20 12 3 -1.</_>
        <_>
          18 20 6 3 2.</_></rects>
      <tilted>0</tilted></_>
    <_>
      <rects>
        <_>
          16 19 8 2 -1.</_>
        <_>
          18 19 4 2 2.</_></rects>
      <tilted>0</tilted></_>
    <_>
      <rects>
        <_>
          16 20 4 1 -1.</_>
        <_>
          17 20 2 1 2.</_></rects>
      <tilted>0</tilted></_>
    <_>
      <rects>
        <_>
          17 16 10 4 -1.</_>
        <_>
          17 16 5 2 2.</_>
        <_>
          22 18 5 2 2.</_></rects>
      <tilted>0</tilted></_>
    <_>
      <rects>
        <_>
          17 17 2 1 -1.</_>
        <_>
          17 17 1 1 2.</_></rects>
      <tilted>1</tilted></_>
    <_>
      <rects>
        <_>
          17 17 6 1 -1.</_>
        <_>
          19 19 2 1 3.</_></rects>
      <tilted>1</tilted></_>
    <_>
      <rects>
        <_>
          17 20 6 2 -1.</_>
        <_>
          19 20 2 2 3.</_></rects>
      <tilted>0</tilted></_>
    <_>
      <rects>
        <_>
          17 24 4 7 -1.</_>
        <_>
          18 25 2 7 2.</_></rects>
      <tilted>1</tilted></_>
    <_>
      <rects>
        <_>
          18 18 1 2 -1.</_>
        <_>
          18 18 1 1 2.</_></rects>
      <tilted>1</tilted></_>
    <_>
      <rects>
        <_>
          18 18 4 1 -1.</_>
        <_>
          19 19 2 1 2.</_></rects>
      <tilted>1</tilted></_>
    <_>
      <rects>
        <_>
          18 18 3 3 -1.</_>
        <_>
          19 18 1 3 3.</_></rects>
      <tilted>0</tilted></_>
    <_>
      <rects>
        <_>
          18 18 2 4 -1.</_>
        <_>
          18 19 2 2 2.</_></rects>
      <tilted>0</tilted></_>
    <_>
      <rects>
        <_>
          18 19 3 2 -1.</_>
        <_>
          19 19 1 2 3.</_></rects>
      <tilted>0</tilted></_>
    <_>
      <rects>
        <_>
          18 19 6 3 -1.</_>
        <_>
          20 20 2 1 9.</_></rects>
      <tilted>0</tilted></_>
    <_>
      <rects>
        <_>
          19 18 4 1 -1.</_>
        <_>
          20 19 2 1 2.</_></rects>
      <tilted>1</tilted></_>
    <_>
      <rects>
        <_>
          19 18 1 8 -1.</_>
        <_>
          17 20 1 4 2.</_></rects>
      <tilted>1</tilted></_>
    <_>
      <rects>
        <_>
          19 18 6 1 -1.</_>
        <_>
          21 20 2 1 3.</_></rects>
      <tilted>1</tilted></_>
    <_>
      <rects>
        <_>
          19 18 6 4 -1.</_>
        <_>
          19 18 3 2 2.</_>
        <_>
          22 20 3 2 2.</_></rects>
      <tilted>0</tilted></_>
    <_>
      <rects>
        <_>
          19 19 3 3 -1.</_>
        <_>
          20 20 1 1 9.</_></rects>
      <tilted>0</tilted></_>
    <_>
      <rects>
        <_>
          19 20 6 3 -1.</_>
        <_>
          21 20 2 3 3.</_></rects>
      <tilted>0</tilted></_>
    <_>
      <rects>
        <_>
          19 20 9 5 -1.</_>
        <_>
          22 20 3 5 3.</_></rects>
      <tilted>0</tilted></_>
    <_>
      <rects>
        <_>
          20 16 10 10 -1.</_>
        <_>
          20 16 5 10 2.</_></rects>
      <tilted>1</tilted></_>
    <_>
      <rects>
        <_>
          20 17 3 2 -1.</_>
        <_>
          20 18 3 1 2.</_></rects>
      <tilted>0</tilted></_>
    <_>
      <rects>
        <_>
          20 18 3 2 -1.</_>
        <_>
          21 19 1 2 3.</_></rects>
      <tilted>1</tilted></_>
    <_>
      <rects>
        <_>
          20 19 4 1 -1.</_>
        <_>
          21 20 2 1 2.</_></rects>
      <tilted>1</tilted></_>
    <_>
      <rects>
        <_>
          20 23 7 6 -1.</_>
        <_>
          18 25 7 2 3.</_></rects>
      <tilted>1</tilted></_>
    <_>
      <rects>
        <_>
          21 10 9 27 -1.</_>
        <_>
          24 19 3 9 9.</_></rects>
      <tilted>0</tilted></_>
    <_>
      <rects>
        <_>
          22 16 12 15 -1.</_>
        <_>
          25 16 6 15 2.</_></rects>
      <tilted>0</tilted></_>
    <_>
      <rects>
        <_>
          22 22 4 2 -1.</_>
        <_>
          22 23 4 1 2.</_></rects>
      <tilted>0</tilted></_>
    <_>
      <rects>
        <_>
          22 28 2 4 -1.</_>
        <_>
          21 29 2 2 2.</_></rects>
      <tilted>1</tilted></_>
    <_>
      <rects>
        <_>
          23 21 9 6 -1.</_>
        <_>
          26 21 3 6 3.</_></rects>
      <tilted>0</tilted></_>
    <_>
      <rects>
        <_>
          25 9 8 20 -1.</_>
        <_>
          20 14 8 10 2.</_></rects>
      <tilted>1</tilted></_>
    <_>
      <rects>
        <_>
          25 11 7 9 -1.</_>
        <_>
          22 14 7 3 3.</_></rects>
      <tilted>1</tilted></_>
    <_>
      <rects>
        <_>
          26 19 8 3 -1.</_>
        <_>
          28 19 4 3 2.</_></rects>
      <tilted>0</tilted></_>
    <_>
      <rects>
        <_>
          27 12 4 12 -1.</_>
        <_>
          23 16 4 4 3.</_></rects>
      <tilted>1</tilted></_>
    <_>
      <rects>
        <_>
          27 13 3 6 -1.</_>
        <_>
          25 15 3 2 3.</_></rects>
      <tilted>1</tilted></_>
    <_>
      <rects>
        <_>
          28 8 6 8 -1.</_>
        <_>
          26 10 6 4 2.</_></rects>
      <tilted>1</tilted></_>
    <_>
      <rects>
        <_>
          29 12 5 6 -1.</_>
        <_>
          27 14 5 2 3.</_></rects>
      <tilted>1</tilted></_>
    <_>
      <rects>
        <_>
          29 15 2 9 -1.</_>
        <_>
          26 18 2 3 3.</_></rects>
      <tilted>1</tilted></_>
    <_>
      <rects>
        <_>
          29 23 4 2 -1.</_>
        <_>
          30 23 2 2 2.</_></rects>
      <tilted>0</tilted></_>
    <_>
      <rects>
        <_>
          32 12 2 23 -1.</_>
        <_>
          33 12 1 23 2.</_></rects>
      <tilted>0</tilted></_></features></cascade>
</opencv_storage>
