<?xml version="1.0"?>
<opencv_storage>
<cascade>
  <stageType>BOOST</stageType>
  <featureType>HAAR</featureType>
  <height>30</height>
  <width>25</width>
  <stageParams>
    <boostType>GAB</boostType>
    <minHitRate>9.9500000476837158e-01</minHitRate>
    <maxFalseAlarm>5.0000000000000000e-01</maxFalseAlarm>
    <weightTrimRate>9.4999999999999996e-01</weightTrimRate>
    <maxDepth>1</maxDepth>
    <maxWeakCount>100</maxWeakCount></stageParams>
  <featureParams>
    <maxCatCount>0</maxCatCount>
    <featSize>1</featSize>
    <mode>ALL</mode></featureParams>
  <stageNum>10</stageNum>
  <stages>
    <!-- stage 0 -->
    <_>
      <maxWeakCount>2</maxWeakCount>
      <stageThreshold>-2.4264228343963623e-01</stageThreshold>
      <weakClassifiers>
        <_>
          <internalNodes>
            0 -1 3 -4.1504092514514923e-02</internalNodes>
          <leafValues>
            9.0577703714370728e-01 -8.8229966163635254e-01</leafValues></_>
        <_>
          <internalNodes>
            0 -1 11 5.6929974816739559e-03</internalNodes>
          <leafValues>
            -8.0571752786636353e-01 6.3965737819671631e-01</leafValues></_></weakClassifiers></_>
    <!-- stage 1 -->
    <_>
      <maxWeakCount>4</maxWeakCount>
      <stageThreshold>-8.1848061084747314e-01</stageThreshold>
      <weakClassifiers>
        <_>
          <internalNodes>
            0 -1 3 -5.0300374627113342e-02</internalNodes>
          <leafValues>
            7.8279441595077515e-01 -7.8113967180252075e-01</leafValues></_>
        <_>
          <internalNodes>
            0 -1 5 -3.6346506327390671e-02</internalNodes>
          <leafValues>
            5.5405008792877197e-01 -6.3118857145309448e-01</leafValues></_>
        <_>
          <internalNodes>
            0 -1 29 -2.9032048769295216e-04</internalNodes>
          <leafValues>
            -9.3255239725112915e-01 3.1336358189582825e-01</leafValues></_>
        <_>
          <internalNodes>
            0 -1 28 2.4928839411586523e-04</internalNodes>
          <leafValues>
            2.8048405051231384e-01 -9.3632018566131592e-01</leafValues></_></weakClassifiers></_>
    <!-- stage 2 -->
    <_>
      <maxWeakCount>3</maxWeakCount>
      <stageThreshold>-8.4021769464015961e-02</stageThreshold>
      <weakClassifiers>
        <_>
          <internalNodes>
            0 -1 10 -3.0116328969597816e-02</internalNodes>
          <leafValues>
            6.8798929452896118e-01 -7.8352373838424683e-01</leafValues></_>
        <_>
          <internalNodes>
            0 -1 30 -1.7754721920937300e-04</internalNodes>
          <leafValues>
            -9.6684622764587402e-01 4.0547788143157959e-01</leafValues></_>
        <_>
          <internalNodes>
            0 -1 27 4.7713512321934104e-04</internalNodes>
          <leafValues>
            2.9402408003807068e-01 -9.3019104003906250e-01</leafValues></_></weakClassifiers></_>
    <!-- stage 3 -->
    <_>
      <maxWeakCount>4</maxWeakCount>
      <stageThreshold>-9.3547582626342773e-01</stageThreshold>
      <weakClassifiers>
        <_>
          <internalNodes>
            0 -1 2 -1.0559293441474438e-02</internalNodes>
          <leafValues>
            7.0674371719360352e-01 -8.0000001192092896e-01</leafValues></_>
        <_>
          <internalNodes>
            0 -1 41 7.2958641685545444e-03</internalNodes>
          <leafValues>
            -7.4149668216705322e-01 5.1027768850326538e-01</leafValues></_>
        <_>
          <internalNodes>
            0 -1 33 1.0245413432130590e-04</internalNodes>
          <leafValues>
            3.3038246631622314e-01 -9.3862205743789673e-01</leafValues></_>
        <_>
          <internalNodes>
            0 -1 33 -2.9260903829708695e-04</internalNodes>
          <leafValues>
            -9.0126937627792358e-01 2.7563837170600891e-01</leafValues></_></weakClassifiers></_>
    <!-- stage 4 -->
    <_>
      <maxWeakCount>5</maxWeakCount>
      <stageThreshold>-4.4481286406517029e-01</stageThreshold>
      <weakClassifiers>
        <_>
          <internalNodes>
            0 -1 40 1.3221342116594315e-02</internalNodes>
          <leafValues>
            -6.7272728681564331e-01 6.2238806486129761e-01</leafValues></_>
        <_>
          <internalNodes>
            0 -1 18 -4.0732510387897491e-04</internalNodes>
          <leafValues>
            -9.1503685712814331e-01 3.1511306762695312e-01</leafValues></_>
        <_>
          <internalNodes>
            0 -1 18 2.5019227177836001e-04</internalNodes>
          <leafValues>
            2.6621586084365845e-01 -9.0493297576904297e-01</leafValues></_>
        <_>
          <internalNodes>
            0 -1 9 1.8888484686613083e-02</internalNodes>
          <leafValues>
            -4.6541899442672729e-01 5.7936757802963257e-01</leafValues></_>
        <_>
          <internalNodes>
            0 -1 39 1.7831538571044803e-04</internalNodes>
          <leafValues>
            2.1396124362945557e-01 -9.3278211355209351e-01</leafValues></_></weakClassifiers></_>
    <!-- stage 5 -->
    <_>
      <maxWeakCount>6</maxWeakCount>
      <stageThreshold>-8.1931048631668091e-01</stageThreshold>
      <weakClassifiers>
        <_>
          <internalNodes>
            0 -1 39 -2.8354889946058393e-04</internalNodes>
          <leafValues>
            -8.6607927083969116e-01 5.6947094202041626e-01</leafValues></_>
        <_>
          <internalNodes>
            0 -1 7 -6.8864789791405201e-03</internalNodes>
          <leafValues>
            4.6626234054565430e-01 -7.0128661394119263e-01</leafValues></_>
        <_>
          <internalNodes>
            0 -1 38 3.2589174224995077e-04</internalNodes>
          <leafValues>
            2.7210229635238647e-01 -9.4425725936889648e-01</leafValues></_>
        <_>
          <internalNodes>
            0 -1 36 -8.9193712919950485e-03</internalNodes>
          <leafValues>
            2.8537145256996155e-01 -7.2912818193435669e-01</leafValues></_>
        <_>
          <internalNodes>
            0 -1 43 -1.4733574353158474e-02</internalNodes>
          <leafValues>
            7.6260977983474731e-01 -2.9431247711181641e-01</leafValues></_>
        <_>
          <internalNodes>
            0 -1 31 -2.0183233573334292e-05</internalNodes>
          <leafValues>
            2.6570346951484680e-01 -7.8871124982833862e-01</leafValues></_></weakClassifiers></_>
    <!-- stage 6 -->
    <_>
      <maxWeakCount>3</maxWeakCount>
      <stageThreshold>-1.0039598941802979e+00</stageThreshold>
      <weakClassifiers>
        <_>
          <internalNodes>
            0 -1 19 2.0362191207823344e-05</internalNodes>
          <leafValues>
            -6.4348274469375610e-01 7.1566849946975708e-01</leafValues></_>
        <_>
          <internalNodes>
            0 -1 42 -7.1890855906531215e-04</internalNodes>
          <leafValues>
            3.9937096834182739e-01 -8.4604632854461670e-01</leafValues></_>
        <_>
          <internalNodes>
            0 -1 26 -6.6071294713765383e-04</internalNodes>
          <leafValues>
            -8.7358206510543823e-01 3.0468484759330750e-01</leafValues></_></weakClassifiers></_>
    <!-- stage 7 -->
    <_>
      <maxWeakCount>7</maxWeakCount>
      <stageThreshold>-1.0507006645202637e+00</stageThreshold>
      <weakClassifiers>
        <_>
          <internalNodes>
            0 -1 13 7.0730419829487801e-03</internalNodes>
          <leafValues>
            -4.2788460850715637e-01 6.6182571649551392e-01</leafValues></_>
        <_>
          <internalNodes>
            0 -1 4 -4.9878740683197975e-03</internalNodes>
          <leafValues>
            3.5573652386665344e-01 -7.6213103532791138e-01</leafValues></_>
        <_>
          <internalNodes>
            0 -1 17 -1.4594651293009520e-04</internalNodes>
          <leafValues>
            -7.7047103643417358e-01 3.0135557055473328e-01</leafValues></_>
        <_>
          <internalNodes>
            0 -1 26 -2.1660765924025327e-05</internalNodes>
          <leafValues>
            1.8205502629280090e-01 -7.3090344667434692e-01</leafValues></_>
        <_>
          <internalNodes>
            0 -1 21 3.0256409081630409e-04</internalNodes>
          <leafValues>
            2.1787434816360474e-01 -9.0234434604644775e-01</leafValues></_>
        <_>
          <internalNodes>
            0 -1 14 -3.6509060300886631e-03</internalNodes>
          <leafValues>
            1.8397437036037445e-01 -7.6297593116760254e-01</leafValues></_>
        <_>
          <internalNodes>
            0 -1 21 -1.5336021897383034e-04</internalNodes>
          <leafValues>
            -9.0664666891098022e-01 1.6701413691043854e-01</leafValues></_></weakClassifiers></_>
    <!-- stage 8 -->
    <_>
      <maxWeakCount>9</maxWeakCount>
      <stageThreshold>-9.3252331018447876e-01</stageThreshold>
      <weakClassifiers>
        <_>
          <internalNodes>
            0 -1 20 -2.2991991136223078e-04</internalNodes>
          <leafValues>
            -8.9879518747329712e-01 5.0181221961975098e-01</leafValues></_>
        <_>
          <internalNodes>
            0 -1 34 -2.4104469048324972e-05</internalNodes>
          <leafValues>
            2.8051429986953735e-01 -7.6590871810913086e-01</leafValues></_>
        <_>
          <internalNodes>
            0 -1 8 2.6613850146532059e-02</internalNodes>
          <leafValues>
            -3.9842176437377930e-01 4.9097171425819397e-01</leafValues></_>
        <_>
          <internalNodes>
            0 -1 24 -2.0252156537026167e-03</internalNodes>
          <leafValues>
            2.6958280801773071e-01 -7.3302125930786133e-01</leafValues></_>
        <_>
          <internalNodes>
            0 -1 37 5.7887060393113643e-05</internalNodes>
          <leafValues>
            2.0393843948841095e-01 -8.0808430910110474e-01</leafValues></_>
        <_>
          <internalNodes>
            0 -1 12 -4.9631074070930481e-03</internalNodes>
          <leafValues>
            2.2906658053398132e-01 -5.7973879575729370e-01</leafValues></_>
        <_>
          <internalNodes>
            0 -1 25 -1.3553173630498350e-04</internalNodes>
          <leafValues>
            -8.2080781459808350e-01 1.8819759786128998e-01</leafValues></_>
        <_>
          <internalNodes>
            0 -1 0 1.2690097093582153e-01</internalNodes>
          <leafValues>
            -2.1671807765960693e-01 7.6439088582992554e-01</leafValues></_>
        <_>
          <internalNodes>
            0 -1 1 -2.8851316310465336e-03</internalNodes>
          <leafValues>
            2.1891739964485168e-01 -7.1139550209045410e-01</leafValues></_></weakClassifiers></_>
    <!-- stage 9 -->
    <_>
      <maxWeakCount>9</maxWeakCount>
      <stageThreshold>-1.0481165647506714e+00</stageThreshold>
      <weakClassifiers>
        <_>
          <internalNodes>
            0 -1 26 -2.0486910216277465e-05</internalNodes>
          <leafValues>
            5.7168984413146973e-01 -5.7681566476821899e-01</leafValues></_>
        <_>
          <internalNodes>
            0 -1 32 5.0687906332314014e-04</internalNodes>
          <leafValues>
            3.0281803011894226e-01 -7.8876531124114990e-01</leafValues></_>
        <_>
          <internalNodes>
            0 -1 35 2.6028275897260755e-05</internalNodes>
          <leafValues>
            -7.8164398670196533e-01 2.2929279506206512e-01</leafValues></_>
        <_>
          <internalNodes>
            0 -1 6 -2.1086707711219788e-03</internalNodes>
          <leafValues>
            2.3758307099342346e-01 -7.2460651397705078e-01</leafValues></_>
        <_>
          <internalNodes>
            0 -1 23 -1.3137070927768946e-03</internalNodes>
          <leafValues>
            3.9334693551063538e-01 -4.3168762326240540e-01</leafValues></_>
        <_>
          <internalNodes>
            0 -1 31 -5.1231193356215954e-04</internalNodes>
          <leafValues>
            -5.2088379859924316e-01 2.9142960906028748e-01</leafValues></_>
        <_>
          <internalNodes>
            0 -1 22 2.3602487999596633e-05</internalNodes>
          <leafValues>
            -7.6437425613403320e-01 2.0827169716358185e-01</leafValues></_>
        <_>
          <internalNodes>
            0 -1 15 1.1739159934222698e-02</internalNodes>
          <leafValues>
            -7.6154267787933350e-01 1.6330826282501221e-01</leafValues></_>
        <_>
          <internalNodes>
            0 -1 16 2.5881197871058248e-05</internalNodes>
          <leafValues>
            -4.6137988567352295e-01 3.0015742778778076e-01</leafValues></_></weakClassifiers></_></stages>
  <features>
    <_>
      <rects>
        <_>
          4 1 20 28 -1.</_>
        <_>
          4 8 20 14 2.</_></rects>
      <tilted>0</tilted></_>
    <_>
      <rects>
        <_>
          4 18 12 2 -1.</_>
        <_>
          10 18 6 2 2.</_></rects>
      <tilted>0</tilted></_>
    <_>
      <rects>
        <_>
          5 10 6 10 -1.</_>
        <_>
          8 10 3 10 2.</_></rects>
      <tilted>0</tilted></_>
    <_>
      <rects>
        <_>
          5 10 16 11 -1.</_>
        <_>
          9 10 8 11 2.</_></rects>
      <tilted>0</tilted></_>
    <_>
      <rects>
        <_>
          5 10 10 4 -1.</_>
        <_>
          10 10 5 4 2.</_></rects>
      <tilted>0</tilted></_>
    <_>
      <rects>
        <_>
          6 7 13 15 -1.</_>
        <_>
          6 12 13 5 3.</_></rects>
      <tilted>0</tilted></_>
    <_>
      <rects>
        <_>
          6 9 6 6 -1.</_>
        <_>
          6 12 6 3 2.</_></rects>
      <tilted>0</tilted></_>
    <_>
      <rects>
        <_>
          6 9 14 4 -1.</_>
        <_>
          6 11 14 2 2.</_></rects>
      <tilted>0</tilted></_>
    <_>
      <rects>
        <_>
          6 14 9 6 -1.</_>
        <_>
          4 16 9 2 3.</_></rects>
      <tilted>1</tilted></_>
    <_>
      <rects>
        <_>
          7 5 6 6 -1.</_>
        <_>
          9 7 2 6 3.</_></rects>
      <tilted>1</tilted></_>
    <_>
      <rects>
        <_>
          7 8 12 15 -1.</_>
        <_>
          7 13 12 5 3.</_></rects>
      <tilted>0</tilted></_>
    <_>
      <rects>
        <_>
          7 15 9 8 -1.</_>
        <_>
          7 19 9 4 2.</_></rects>
      <tilted>0</tilted></_>
    <_>
      <rects>
        <_>
          8 8 10 4 -1.</_>
        <_>
          8 10 10 2 2.</_></rects>
      <tilted>0</tilted></_>
    <_>
      <rects>
        <_>
          8 19 11 4 -1.</_>
        <_>
          8 21 11 2 2.</_></rects>
      <tilted>0</tilted></_>
    <_>
      <rects>
        <_>
          10 8 9 10 -1.</_>
        <_>
          10 13 9 5 2.</_></rects>
      <tilted>0</tilted></_>
    <_>
      <rects>
        <_>
          10 13 12 7 -1.</_>
        <_>
          16 13 6 7 2.</_></rects>
      <tilted>0</tilted></_>
    <_>
      <rects>
        <_>
          11 12 4 4 -1.</_>
        <_>
          11 14 4 2 2.</_></rects>
      <tilted>0</tilted></_>
    <_>
      <rects>
        <_>
          11 13 2 4 -1.</_>
        <_>
          11 14 2 2 2.</_></rects>
      <tilted>0</tilted></_>
    <_>
      <rects>
        <_>
          11 14 3 3 -1.</_>
        <_>
          12 15 1 1 9.</_></rects>
      <tilted>0</tilted></_>
    <_>
      <rects>
        <_>
          11 14 3 4 -1.</_>
        <_>
          11 16 3 2 2.</_></rects>
      <tilted>0</tilted></_>
    <_>
      <rects>
        <_>
          11 15 4 2 -1.</_>
        <_>
          12 15 2 2 2.</_></rects>
      <tilted>0</tilted></_>
    <_>
      <rects>
        <_>
          11 15 4 2 -1.</_>
        <_>
          13 15 2 2 2.</_></rects>
      <tilted>0</tilted></_>
    <_>
      <rects>
        <_>
          11 15 3 4 -1.</_>
        <_>
          11 17 3 2 2.</_></rects>
      <tilted>0</tilted></_>
    <_>
      <rects>
        <_>
          12 10 8 6 -1.</_>
        <_>
          12 10 4 3 2.</_>
        <_>
          16 13 4 3 2.</_></rects>
      <tilted>0</tilted></_>
    <_>
      <rects>
        <_>
          12 12 9 1 -1.</_>
        <_>
          15 15 3 1 3.</_></rects>
      <tilted>1</tilted></_>
    <_>
      <rects>
        <_>
          12 14 2 1 -1.</_>
        <_>
          12 14 1 1 2.</_></rects>
      <tilted>1</tilted></_>
    <_>
      <rects>
        <_>
          12 14 4 1 -1.</_>
        <_>
          12 14 2 1 2.</_></rects>
      <tilted>1</tilted></_>
    <_>
      <rects>
        <_>
          12 14 2 4 -1.</_>
        <_>
          12 16 2 2 2.</_></rects>
      <tilted>0</tilted></_>
    <_>
      <rects>
        <_>
          12 14 3 2 -1.</_>
        <_>
          12 15 3 1 2.</_></rects>
      <tilted>0</tilted></_>
    <_>
      <rects>
        <_>
          12 14 3 4 -1.</_>
        <_>
          12 15 3 2 2.</_></rects>
      <tilted>0</tilted></_>
    <_>
      <rects>
        <_>
          12 14 3 4 -1.</_>
        <_>
          12 16 3 2 2.</_></rects>
      <tilted>0</tilted></_>
    <_>
      <rects>
        <_>
          12 15 4 1 -1.</_>
        <_>
          12 15 2 1 2.</_></rects>
      <tilted>1</tilted></_>
    <_>
      <rects>
        <_>
          12 15 2 4 -1.</_>
        <_>
          12 17 2 2 2.</_></rects>
      <tilted>0</tilted></_>
    <_>
      <rects>
        <_>
          13 14 2 2 -1.</_>
        <_>
          13 14 1 2 2.</_></rects>
      <tilted>1</tilted></_>
    <_>
      <rects>
        <_>
          13 14 4 1 -1.</_>
        <_>
          13 14 2 1 2.</_></rects>
      <tilted>1</tilted></_>
    <_>
      <rects>
        <_>
          13 16 2 4 -1.</_>
        <_>
          13 18 2 2 2.</_></rects>
      <tilted>0</tilted></_>
    <_>
      <rects>
        <_>
          14 11 3 9 -1.</_>
        <_>
          11 14 3 3 3.</_></rects>
      <tilted>1</tilted></_>
    <_>
      <rects>
        <_>
          14 13 2 1 -1.</_>
        <_>
          14 13 1 1 2.</_></rects>
      <tilted>1</tilted></_>
    <_>
      <rects>
        <_>
          14 13 2 4 -1.</_>
        <_>
          14 13 2 2 2.</_></rects>
      <tilted>1</tilted></_>
    <_>
      <rects>
        <_>
          14 14 2 2 -1.</_>
        <_>
          14 14 2 1 2.</_></rects>
      <tilted>1</tilted></_>
    <_>
      <rects>
        <_>
          15 10 6 11 -1.</_>
        <_>
          18 10 3 11 2.</_></rects>
      <tilted>0</tilted></_>
    <_>
      <rects>
        <_>
          16 9 4 13 -1.</_>
        <_>
          18 9 2 13 2.</_></rects>
      <tilted>0</tilted></_>
    <_>
      <rects>
        <_>
          19 9 1 9 -1.</_>
        <_>
          16 12 1 3 3.</_></rects>
      <tilted>1</tilted></_>
    <_>
      <rects>
        <_>
          21 12 4 10 -1.</_>
        <_>
          23 12 2 10 2.</_></rects>
      <tilted>0</tilted></_></features></cascade>
</opencv_storage>
