<?xml version="1.0"?>
<opencv_storage>
<cascade>
  <stageType>BOOST</stageType>
  <featureType>HAAR</featureType>
  <height>28</height>
  <width>31</width>
  <stageParams>
    <boostType>GAB</boostType>
    <minHitRate>9.9500000476837158e-01</minHitRate>
    <maxFalseAlarm>5.0000000000000000e-01</maxFalseAlarm>
    <weightTrimRate>9.4999999999999996e-01</weightTrimRate>
    <maxDepth>1</maxDepth>
    <maxWeakCount>100</maxWeakCount></stageParams>
  <featureParams>
    <maxCatCount>0</maxCatCount>
    <featSize>1</featSize>
    <mode>BASIC</mode></featureParams>
  <stageNum>15</stageNum>
  <stages>
    <!-- stage 0 -->
    <_>
      <maxWeakCount>2</maxWeakCount>
      <stageThreshold>-3.3593602478504181e-02</stageThreshold>
      <weakClassifiers>
        <_>
          <internalNodes>
            0 -1 21 -6.1794020235538483e-02</internalNodes>
          <leafValues>
            9.3736594915390015e-01 -9.2493295669555664e-01</leafValues></_>
        <_>
          <internalNodes>
            0 -1 41 -6.3320793211460114e-02</internalNodes>
          <leafValues>
            8.9133936166763306e-01 -8.4439980983734131e-01</leafValues></_></weakClassifiers></_>
    <!-- stage 1 -->
    <_>
      <maxWeakCount>4</maxWeakCount>
      <stageThreshold>-6.0656911134719849e-01</stageThreshold>
      <weakClassifiers>
        <_>
          <internalNodes>
            0 -1 10 -1.1010149121284485e-01</internalNodes>
          <leafValues>
            8.7048125267028809e-01 -6.7963194847106934e-01</leafValues></_>
        <_>
          <internalNodes>
            0 -1 50 4.1742384433746338e-02</internalNodes>
          <leafValues>
            -8.0883371829986572e-01 6.3037568330764771e-01</leafValues></_>
        <_>
          <internalNodes>
            0 -1 32 -5.9654332697391510e-02</internalNodes>
          <leafValues>
            4.5644122362136841e-01 -9.2073637247085571e-01</leafValues></_>
        <_>
          <internalNodes>
            0 -1 42 -2.7846861630678177e-02</internalNodes>
          <leafValues>
            4.2545533180236816e-01 -7.9272365570068359e-01</leafValues></_></weakClassifiers></_>
    <!-- stage 2 -->
    <_>
      <maxWeakCount>2</maxWeakCount>
      <stageThreshold>-2.0008656382560730e-01</stageThreshold>
      <weakClassifiers>
        <_>
          <internalNodes>
            0 -1 11 -1.0678502917289734e-01</internalNodes>
          <leafValues>
            8.4146338701248169e-01 -9.2929291725158691e-01</leafValues></_>
        <_>
          <internalNodes>
            0 -1 3 5.1899790763854980e-02</internalNodes>
          <leafValues>
            -8.0223226547241211e-01 7.2920638322830200e-01</leafValues></_></weakClassifiers></_>
    <!-- stage 3 -->
    <_>
      <maxWeakCount>4</maxWeakCount>
      <stageThreshold>-3.7751927971839905e-01</stageThreshold>
      <weakClassifiers>
        <_>
          <internalNodes>
            0 -1 125 -2.8755435720086098e-02</internalNodes>
          <leafValues>
            7.9879546165466309e-01 -5.2999585866928101e-01</leafValues></_>
        <_>
          <internalNodes>
            0 -1 6 -4.1626557707786560e-02</internalNodes>
          <leafValues>
            6.3825076818466187e-01 -6.2404239177703857e-01</leafValues></_>
        <_>
          <internalNodes>
            0 -1 19 -3.8555704057216644e-02</internalNodes>
          <leafValues>
            3.8334685564041138e-01 -8.6732763051986694e-01</leafValues></_>
        <_>
          <internalNodes>
            0 -1 27 3.6775458604097366e-02</internalNodes>
          <leafValues>
            -7.1662753820419312e-01 3.9317211508750916e-01</leafValues></_></weakClassifiers></_>
    <!-- stage 4 -->
    <_>
      <maxWeakCount>7</maxWeakCount>
      <stageThreshold>-1.0262908935546875e+00</stageThreshold>
      <weakClassifiers>
        <_>
          <internalNodes>
            0 -1 54 -1.2456619739532471e-01</internalNodes>
          <leafValues>
            7.5723016262054443e-01 -7.1256279945373535e-01</leafValues></_>
        <_>
          <internalNodes>
            0 -1 22 -3.7429388612508774e-02</internalNodes>
          <leafValues>
            6.2099641561508179e-01 -5.3138470649719238e-01</leafValues></_>
        <_>
          <internalNodes>
            0 -1 36 6.0786742717027664e-02</internalNodes>
          <leafValues>
            -5.1754945516586304e-01 5.2618813514709473e-01</leafValues></_>
        <_>
          <internalNodes>
            0 -1 33 8.8697932660579681e-03</internalNodes>
          <leafValues>
            -4.3796375393867493e-01 5.2985244989395142e-01</leafValues></_>
        <_>
          <internalNodes>
            0 -1 92 1.8064834177494049e-02</internalNodes>
          <leafValues>
            -8.4042608737945557e-01 2.3945339024066925e-01</leafValues></_>
        <_>
          <internalNodes>
            0 -1 132 -3.9110258221626282e-02</internalNodes>
          <leafValues>
            6.6166323423385620e-01 -2.9857969284057617e-01</leafValues></_>
        <_>
          <internalNodes>
            0 -1 70 -1.7648216453380883e-04</internalNodes>
          <leafValues>
            -6.3658410310745239e-01 2.6447993516921997e-01</leafValues></_></weakClassifiers></_>
    <!-- stage 5 -->
    <_>
      <maxWeakCount>9</maxWeakCount>
      <stageThreshold>-1.2322641611099243e+00</stageThreshold>
      <weakClassifiers>
        <_>
          <internalNodes>
            0 -1 34 -1.6198487579822540e-01</internalNodes>
          <leafValues>
            7.0588237047195435e-01 -4.9532711505889893e-01</leafValues></_>
        <_>
          <internalNodes>
            0 -1 102 5.4052136838436127e-02</internalNodes>
          <leafValues>
            -6.6142481565475464e-01 4.1502991318702698e-01</leafValues></_>
        <_>
          <internalNodes>
            0 -1 2 1.5857439488172531e-02</internalNodes>
          <leafValues>
            -5.3240424394607544e-01 5.0381737947463989e-01</leafValues></_>
        <_>
          <internalNodes>
            0 -1 52 6.0604184865951538e-02</internalNodes>
          <leafValues>
            -5.5061393976211548e-01 3.7273684144020081e-01</leafValues></_>
        <_>
          <internalNodes>
            0 -1 104 4.6349028707481921e-05</internalNodes>
          <leafValues>
            2.3364698886871338e-01 -7.5692778825759888e-01</leafValues></_>
        <_>
          <internalNodes>
            0 -1 104 -7.0526992203667760e-05</internalNodes>
          <leafValues>
            -6.5344291925430298e-01 2.1043267846107483e-01</leafValues></_>
        <_>
          <internalNodes>
            0 -1 53 -4.0456913411617279e-02</internalNodes>
          <leafValues>
            2.1699342131614685e-01 -6.3291245698928833e-01</leafValues></_>
        <_>
          <internalNodes>
            0 -1 48 -3.1087972223758698e-02</internalNodes>
          <leafValues>
            2.3057931661605835e-01 -7.0134490728378296e-01</leafValues></_>
        <_>
          <internalNodes>
            0 -1 16 7.6675802469253540e-02</internalNodes>
          <leafValues>
            -2.8304129838943481e-01 6.6310811042785645e-01</leafValues></_></weakClassifiers></_>
    <!-- stage 6 -->
    <_>
      <maxWeakCount>9</maxWeakCount>
      <stageThreshold>-1.3780637979507446e+00</stageThreshold>
      <weakClassifiers>
        <_>
          <internalNodes>
            0 -1 9 -6.3504375517368317e-02</internalNodes>
          <leafValues>
            6.0508346557617188e-01 -5.4668307304382324e-01</leafValues></_>
        <_>
          <internalNodes>
            0 -1 107 -8.3083112258464098e-05</internalNodes>
          <leafValues>
            -7.7476775646209717e-01 3.1652036309242249e-01</leafValues></_>
        <_>
          <internalNodes>
            0 -1 63 3.5258796066045761e-02</internalNodes>
          <leafValues>
            -2.5659883022308350e-01 7.1015709638595581e-01</leafValues></_>
        <_>
          <internalNodes>
            0 -1 114 4.8696310841478407e-05</internalNodes>
          <leafValues>
            2.7967241406440735e-01 -6.4066553115844727e-01</leafValues></_>
        <_>
          <internalNodes>
            0 -1 69 1.3875549659132957e-02</internalNodes>
          <leafValues>
            -8.4706729650497437e-01 1.8573105335235596e-01</leafValues></_>
        <_>
          <internalNodes>
            0 -1 30 -1.2268268619664013e-04</internalNodes>
          <leafValues>
            -7.4739247560501099e-01 1.7331008613109589e-01</leafValues></_>
        <_>
          <internalNodes>
            0 -1 123 2.6592057198286057e-02</internalNodes>
          <leafValues>
            -5.4648613929748535e-01 2.6812872290611267e-01</leafValues></_>
        <_>
          <internalNodes>
            0 -1 4 1.5782466158270836e-02</internalNodes>
          <leafValues>
            -4.7633162140846252e-01 3.0282419919967651e-01</leafValues></_>
        <_>
          <internalNodes>
            0 -1 68 -1.4610023936256766e-04</internalNodes>
          <leafValues>
            -5.5361604690551758e-01 2.3967976868152618e-01</leafValues></_></weakClassifiers></_>
    <!-- stage 7 -->
    <_>
      <maxWeakCount>10</maxWeakCount>
      <stageThreshold>-9.9337160587310791e-01</stageThreshold>
      <weakClassifiers>
        <_>
          <internalNodes>
            0 -1 20 -5.8731660246849060e-02</internalNodes>
          <leafValues>
            5.6981408596038818e-01 -5.8415842056274414e-01</leafValues></_>
        <_>
          <internalNodes>
            0 -1 59 -3.8698563002981246e-04</internalNodes>
          <leafValues>
            -4.1742315888404846e-01 4.8623093962669373e-01</leafValues></_>
        <_>
          <internalNodes>
            0 -1 131 -3.0554834753274918e-02</internalNodes>
          <leafValues>
            6.4935272932052612e-01 -3.0874806642532349e-01</leafValues></_>
        <_>
          <internalNodes>
            0 -1 58 6.1563305556774139e-02</internalNodes>
          <leafValues>
            -5.2349424362182617e-01 2.9131081700325012e-01</leafValues></_>
        <_>
          <internalNodes>
            0 -1 128 1.7854023724794388e-02</internalNodes>
          <leafValues>
            -2.4287818372249603e-01 6.1843556165695190e-01</leafValues></_>
        <_>
          <internalNodes>
            0 -1 112 -5.5735241621732712e-03</internalNodes>
          <leafValues>
            6.9474864006042480e-01 -1.8159168958663940e-01</leafValues></_>
        <_>
          <internalNodes>
            0 -1 84 -3.0815353966318071e-04</internalNodes>
          <leafValues>
            -7.0323425531387329e-01 2.0525349676609039e-01</leafValues></_>
        <_>
          <internalNodes>
            0 -1 71 4.3727090815082192e-04</internalNodes>
          <leafValues>
            2.7718880772590637e-01 -7.2238355875015259e-01</leafValues></_>
        <_>
          <internalNodes>
            0 -1 17 -1.5914767980575562e-02</internalNodes>
          <leafValues>
            6.6027140617370605e-01 -2.5836241245269775e-01</leafValues></_>
        <_>
          <internalNodes>
            0 -1 24 -3.7295747548341751e-02</internalNodes>
          <leafValues>
            2.2603720426559448e-01 -7.2342836856842041e-01</leafValues></_></weakClassifiers></_>
    <!-- stage 8 -->
    <_>
      <maxWeakCount>12</maxWeakCount>
      <stageThreshold>-1.1476309299468994e+00</stageThreshold>
      <weakClassifiers>
        <_>
          <internalNodes>
            0 -1 29 -3.4303635358810425e-02</internalNodes>
          <leafValues>
            5.0899249315261841e-01 -5.2429670095443726e-01</leafValues></_>
        <_>
          <internalNodes>
            0 -1 106 -1.0483374353498220e-04</internalNodes>
          <leafValues>
            -7.1719354391098022e-01 2.5186854600906372e-01</leafValues></_>
        <_>
          <internalNodes>
            0 -1 60 -4.8646554350852966e-03</internalNodes>
          <leafValues>
            5.3871339559555054e-01 -2.9211482405662537e-01</leafValues></_>
        <_>
          <internalNodes>
            0 -1 133 -3.2858602702617645e-02</internalNodes>
          <leafValues>
            5.9871488809585571e-01 -2.5797897577285767e-01</leafValues></_>
        <_>
          <internalNodes>
            0 -1 124 5.9054471552371979e-02</internalNodes>
          <leafValues>
            -3.3774530887603760e-01 4.2107605934143066e-01</leafValues></_>
        <_>
          <internalNodes>
            0 -1 98 -2.5782571174204350e-03</internalNodes>
          <leafValues>
            5.9617125988006592e-01 -2.3399677872657776e-01</leafValues></_>
        <_>
          <internalNodes>
            0 -1 110 -3.3166510984301567e-03</internalNodes>
          <leafValues>
            5.0677585601806641e-01 -2.6693892478942871e-01</leafValues></_>
        <_>
          <internalNodes>
            0 -1 68 -2.7455663075670600e-04</internalNodes>
          <leafValues>
            -6.2392210960388184e-01 2.1832862496376038e-01</leafValues></_>
        <_>
          <internalNodes>
            0 -1 5 4.5421486720442772e-03</internalNodes>
          <leafValues>
            -4.1421240568161011e-01 3.0468347668647766e-01</leafValues></_>
        <_>
          <internalNodes>
            0 -1 136 -5.9769488871097565e-03</internalNodes>
          <leafValues>
            6.2856364250183105e-01 -1.9483754038810730e-01</leafValues></_>
        <_>
          <internalNodes>
            0 -1 95 2.3597772815264761e-04</internalNodes>
          <leafValues>
            2.0254606008529663e-01 -6.4113503694534302e-01</leafValues></_>
        <_>
          <internalNodes>
            0 -1 86 -2.4277206975966692e-03</internalNodes>
          <leafValues>
            5.0600796937942505e-01 -2.4811248481273651e-01</leafValues></_></weakClassifiers></_>
    <!-- stage 9 -->
    <_>
      <maxWeakCount>14</maxWeakCount>
      <stageThreshold>-1.1273161172866821e+00</stageThreshold>
      <weakClassifiers>
        <_>
          <internalNodes>
            0 -1 7 3.5673752427101135e-02</internalNodes>
          <leafValues>
            -2.3911111056804657e-01 6.1032259464263916e-01</leafValues></_>
        <_>
          <internalNodes>
            0 -1 80 1.7866810783743858e-02</internalNodes>
          <leafValues>
            -6.8692135810852051e-01 2.4818007647991180e-01</leafValues></_>
        <_>
          <internalNodes>
            0 -1 46 -5.4253801703453064e-02</internalNodes>
          <leafValues>
            2.5188440084457397e-01 -6.3541418313980103e-01</leafValues></_>
        <_>
          <internalNodes>
            0 -1 77 1.4596087858080864e-02</internalNodes>
          <leafValues>
            -2.2316730022430420e-01 6.9359254837036133e-01</leafValues></_>
        <_>
          <internalNodes>
            0 -1 109 3.4480257891118526e-03</internalNodes>
          <leafValues>
            -2.7641066908836365e-01 6.4940261840820312e-01</leafValues></_>
        <_>
          <internalNodes>
            0 -1 28 -1.1317591997794807e-04</internalNodes>
          <leafValues>
            -5.9355360269546509e-01 2.5857049226760864e-01</leafValues></_>
        <_>
          <internalNodes>
            0 -1 129 -1.4265337958931923e-02</internalNodes>
          <leafValues>
            4.7346457839012146e-01 -2.6435580849647522e-01</leafValues></_>
        <_>
          <internalNodes>
            0 -1 115 -3.7731102202087641e-04</internalNodes>
          <leafValues>
            2.9613441228866577e-01 -4.4144117832183838e-01</leafValues></_>
        <_>
          <internalNodes>
            0 -1 127 -5.9912074357271194e-03</internalNodes>
          <leafValues>
            6.5607303380966187e-01 -1.8545201420783997e-01</leafValues></_>
        <_>
          <internalNodes>
            0 -1 39 7.6714679598808289e-03</internalNodes>
          <leafValues>
            -3.8114437460899353e-01 3.1345650553703308e-01</leafValues></_>
        <_>
          <internalNodes>
            0 -1 88 -2.2021062672138214e-02</internalNodes>
          <leafValues>
            7.4649381637573242e-01 -1.5307503938674927e-01</leafValues></_>
        <_>
          <internalNodes>
            0 -1 55 7.1079425651987549e-06</internalNodes>
          <leafValues>
            -2.2609432041645050e-01 4.2997148633003235e-01</leafValues></_>
        <_>
          <internalNodes>
            0 -1 94 2.4929054779931903e-04</internalNodes>
          <leafValues>
            1.7048536241054535e-01 -6.3054037094116211e-01</leafValues></_>
        <_>
          <internalNodes>
            0 -1 37 -1.1629408225417137e-02</internalNodes>
          <leafValues>
            6.2143063545227051e-01 -2.1106250584125519e-01</leafValues></_></weakClassifiers></_>
    <!-- stage 10 -->
    <_>
      <maxWeakCount>14</maxWeakCount>
      <stageThreshold>-1.1341658830642700e+00</stageThreshold>
      <weakClassifiers>
        <_>
          <internalNodes>
            0 -1 94 -2.5033683050423861e-04</internalNodes>
          <leafValues>
            -5.1855045557022095e-01 5.0531268119812012e-01</leafValues></_>
        <_>
          <internalNodes>
            0 -1 43 -3.2437153160572052e-02</internalNodes>
          <leafValues>
            6.0332858562469482e-01 -2.5094097852706909e-01</leafValues></_>
        <_>
          <internalNodes>
            0 -1 118 1.6844382509589195e-02</internalNodes>
          <leafValues>
            -3.5139703750610352e-01 4.0658256411552429e-01</leafValues></_>
        <_>
          <internalNodes>
            0 -1 94 8.5841456893831491e-05</internalNodes>
          <leafValues>
            2.1353438496589661e-01 -5.9739190340042114e-01</leafValues></_>
        <_>
          <internalNodes>
            0 -1 119 -2.3706721141934395e-02</internalNodes>
          <leafValues>
            3.7336194515228271e-01 -3.3272135257720947e-01</leafValues></_>
        <_>
          <internalNodes>
            0 -1 76 3.6381038371473551e-03</internalNodes>
          <leafValues>
            -2.4535593390464783e-01 5.3554582595825195e-01</leafValues></_>
        <_>
          <internalNodes>
            0 -1 18 -4.8122435808181763e-02</internalNodes>
          <leafValues>
            1.4108538627624512e-01 -7.7378869056701660e-01</leafValues></_>
        <_>
          <internalNodes>
            0 -1 12 -1.7469260841608047e-02</internalNodes>
          <leafValues>
            6.6609513759613037e-01 -1.8570761382579803e-01</leafValues></_>
        <_>
          <internalNodes>
            0 -1 72 -3.7902249023318291e-03</internalNodes>
          <leafValues>
            4.7762176394462585e-01 -2.4738025665283203e-01</leafValues></_>
        <_>
          <internalNodes>
            0 -1 130 6.6918096308654640e-06</internalNodes>
          <leafValues>
            -3.5095098614692688e-01 3.2169008255004883e-01</leafValues></_>
        <_>
          <internalNodes>
            0 -1 40 -7.5750619173049927e-02</internalNodes>
          <leafValues>
            2.0639908313751221e-01 -4.8578453063964844e-01</leafValues></_>
        <_>
          <internalNodes>
            0 -1 0 5.9442371129989624e-02</internalNodes>
          <leafValues>
            -2.2329398989677429e-01 4.6817451715469360e-01</leafValues></_>
        <_>
          <internalNodes>
            0 -1 70 -1.2777595838997513e-04</internalNodes>
          <leafValues>
            -5.6254643201828003e-01 2.0495073497295380e-01</leafValues></_>
        <_>
          <internalNodes>
            0 -1 90 -1.1030855821445584e-03</internalNodes>
          <leafValues>
            5.7623970508575439e-01 -1.8863984942436218e-01</leafValues></_></weakClassifiers></_>
    <!-- stage 11 -->
    <_>
      <maxWeakCount>15</maxWeakCount>
      <stageThreshold>-1.0880469083786011e+00</stageThreshold>
      <weakClassifiers>
        <_>
          <internalNodes>
            0 -1 67 -2.4940993171185255e-03</internalNodes>
          <leafValues>
            5.6814014911651611e-01 -2.4560523033142090e-01</leafValues></_>
        <_>
          <internalNodes>
            0 -1 134 -1.0192990885116160e-04</internalNodes>
          <leafValues>
            3.4346026182174683e-01 -4.3435731530189514e-01</leafValues></_>
        <_>
          <internalNodes>
            0 -1 51 2.6013756170868874e-02</internalNodes>
          <leafValues>
            -2.5390648841857910e-01 4.7494924068450928e-01</leafValues></_>
        <_>
          <internalNodes>
            0 -1 62 -1.6857359558343887e-02</internalNodes>
          <leafValues>
            6.4082926511764526e-01 -1.5488830208778381e-01</leafValues></_>
        <_>
          <internalNodes>
            0 -1 64 -7.0351788963307627e-06</internalNodes>
          <leafValues>
            1.9789478182792664e-01 -5.4492008686065674e-01</leafValues></_>
        <_>
          <internalNodes>
            0 -1 68 2.9446801636368036e-04</internalNodes>
          <leafValues>
            2.0018288493156433e-01 -6.7115497589111328e-01</leafValues></_>
        <_>
          <internalNodes>
            0 -1 66 1.1467812582850456e-02</internalNodes>
          <leafValues>
            -2.1641586720943451e-01 6.2366181612014771e-01</leafValues></_>
        <_>
          <internalNodes>
            0 -1 87 1.4933919534087181e-02</internalNodes>
          <leafValues>
            -1.2874726951122284e-01 6.8790125846862793e-01</leafValues></_>
        <_>
          <internalNodes>
            0 -1 75 -2.6552550494670868e-02</internalNodes>
          <leafValues>
            7.0915627479553223e-01 -1.7072276771068573e-01</leafValues></_>
        <_>
          <internalNodes>
            0 -1 65 -1.2727539986371994e-02</internalNodes>
          <leafValues>
            -8.2393890619277954e-01 1.5219719707965851e-01</leafValues></_>
        <_>
          <internalNodes>
            0 -1 26 -4.9196302890777588e-02</internalNodes>
          <leafValues>
            7.0904463529586792e-01 -1.7958995699882507e-01</leafValues></_>
        <_>
          <internalNodes>
            0 -1 97 1.0300934081897140e-04</internalNodes>
          <leafValues>
            2.3486176133155823e-01 -5.7108730077743530e-01</leafValues></_>
        <_>
          <internalNodes>
            0 -1 23 -6.4080528682097793e-04</internalNodes>
          <leafValues>
            2.4748976528644562e-01 -3.8941115140914917e-01</leafValues></_>
        <_>
          <internalNodes>
            0 -1 103 -6.4564123749732971e-04</internalNodes>
          <leafValues>
            3.0531373620033264e-01 -3.2068020105361938e-01</leafValues></_>
        <_>
          <internalNodes>
            0 -1 44 -3.4620080143213272e-02</internalNodes>
          <leafValues>
            5.1868218183517456e-01 -1.9260434806346893e-01</leafValues></_></weakClassifiers></_>
    <!-- stage 12 -->
    <_>
      <maxWeakCount>16</maxWeakCount>
      <stageThreshold>-9.6092319488525391e-01</stageThreshold>
      <weakClassifiers>
        <_>
          <internalNodes>
            0 -1 125 -3.6118026822805405e-02</internalNodes>
          <leafValues>
            5.5121755599975586e-01 -2.2734335064888000e-01</leafValues></_>
        <_>
          <internalNodes>
            0 -1 61 -9.1276597231626511e-04</internalNodes>
          <leafValues>
            4.3975493311882019e-01 -2.9250830411911011e-01</leafValues></_>
        <_>
          <internalNodes>
            0 -1 1 5.7593453675508499e-02</internalNodes>
          <leafValues>
            -3.0190253257751465e-01 3.9324331283569336e-01</leafValues></_>
        <_>
          <internalNodes>
            0 -1 31 -2.7623344212770462e-02</internalNodes>
          <leafValues>
            6.3578313589096069e-01 -1.5915736556053162e-01</leafValues></_>
        <_>
          <internalNodes>
            0 -1 113 -7.2236507548950613e-05</internalNodes>
          <leafValues>
            -5.5464673042297363e-01 1.6861183941364288e-01</leafValues></_>
        <_>
          <internalNodes>
            0 -1 93 2.4718561326153576e-04</internalNodes>
          <leafValues>
            1.4275716245174408e-01 -7.6516324281692505e-01</leafValues></_>
        <_>
          <internalNodes>
            0 -1 57 -2.6649475097656250e-02</internalNodes>
          <leafValues>
            7.2007530927658081e-01 -1.6664475202560425e-01</leafValues></_>
        <_>
          <internalNodes>
            0 -1 101 -4.3744881986640394e-04</internalNodes>
          <leafValues>
            3.4623917937278748e-01 -2.7798402309417725e-01</leafValues></_>
        <_>
          <internalNodes>
            0 -1 56 -2.1251558791846037e-03</internalNodes>
          <leafValues>
            3.1760662794113159e-01 -3.0165883898735046e-01</leafValues></_>
        <_>
          <internalNodes>
            0 -1 121 -4.3257247307337821e-04</internalNodes>
          <leafValues>
            2.3884430527687073e-01 -3.8178902864456177e-01</leafValues></_>
        <_>
          <internalNodes>
            0 -1 71 -5.0920457579195499e-04</internalNodes>
          <leafValues>
            -6.5084689855575562e-01 1.6280485689640045e-01</leafValues></_>
        <_>
          <internalNodes>
            0 -1 49 1.9101127982139587e-02</internalNodes>
          <leafValues>
            9.1245032846927643e-02 -8.5514426231384277e-01</leafValues></_>
        <_>
          <internalNodes>
            0 -1 78 1.4824181562289596e-05</internalNodes>
          <leafValues>
            -3.4344434738159180e-01 2.5906115770339966e-01</leafValues></_>
        <_>
          <internalNodes>
            0 -1 99 -1.3193909544497728e-03</internalNodes>
          <leafValues>
            3.7460196018218994e-01 -2.7473327517509460e-01</leafValues></_>
        <_>
          <internalNodes>
            0 -1 100 2.9467246495187283e-03</internalNodes>
          <leafValues>
            -1.6385780274868011e-01 7.1777445077896118e-01</leafValues></_>
        <_>
          <internalNodes>
            0 -1 35 -4.4429436093196273e-04</internalNodes>
          <leafValues>
            3.3097124099731445e-01 -2.6788404583930969e-01</leafValues></_></weakClassifiers></_>
    <!-- stage 13 -->
    <_>
      <maxWeakCount>16</maxWeakCount>
      <stageThreshold>-9.8271006345748901e-01</stageThreshold>
      <weakClassifiers>
        <_>
          <internalNodes>
            0 -1 79 1.2584445998072624e-02</internalNodes>
          <leafValues>
            -6.1104142665863037e-01 4.5666065812110901e-01</leafValues></_>
        <_>
          <internalNodes>
            0 -1 111 7.3986419010907412e-05</internalNodes>
          <leafValues>
            3.1826794147491455e-01 -3.8888680934906006e-01</leafValues></_>
        <_>
          <internalNodes>
            0 -1 91 4.2397454380989075e-02</internalNodes>
          <leafValues>
            -6.3264149427413940e-01 2.2668649256229401e-01</leafValues></_>
        <_>
          <internalNodes>
            0 -1 13 -1.8708175048232079e-04</internalNodes>
          <leafValues>
            -6.7867338657379150e-01 1.4173567295074463e-01</leafValues></_>
        <_>
          <internalNodes>
            0 -1 139 1.3950288121122867e-05</internalNodes>
          <leafValues>
            -4.0994337201118469e-01 2.3900081217288971e-01</leafValues></_>
        <_>
          <internalNodes>
            0 -1 8 -4.8530995845794678e-02</internalNodes>
          <leafValues>
            2.1155133843421936e-01 -4.6782192587852478e-01</leafValues></_>
        <_>
          <internalNodes>
            0 -1 38 -1.9706854596734047e-02</internalNodes>
          <leafValues>
            5.1078104972839355e-01 -1.8825417757034302e-01</leafValues></_>
        <_>
          <internalNodes>
            0 -1 137 5.9604048146866262e-05</internalNodes>
          <leafValues>
            2.6405993103981018e-01 -3.5085985064506531e-01</leafValues></_>
        <_>
          <internalNodes>
            0 -1 122 -1.3214864768087864e-02</internalNodes>
          <leafValues>
            6.1591458320617676e-01 -1.6909636557102203e-01</leafValues></_>
        <_>
          <internalNodes>
            0 -1 105 7.4684321589302272e-05</internalNodes>
          <leafValues>
            2.1986790001392365e-01 -4.4754943251609802e-01</leafValues></_>
        <_>
          <internalNodes>
            0 -1 14 -4.5518227852880955e-04</internalNodes>
          <leafValues>
            2.3421481251716614e-01 -4.1126412153244019e-01</leafValues></_>
        <_>
          <internalNodes>
            0 -1 85 9.7142241429537535e-04</internalNodes>
          <leafValues>
            -2.9558378458023071e-01 3.4639501571655273e-01</leafValues></_>
        <_>
          <internalNodes>
            0 -1 116 -3.0780059751123190e-04</internalNodes>
          <leafValues>
            2.4878104031085968e-01 -3.7333858013153076e-01</leafValues></_>
        <_>
          <internalNodes>
            0 -1 135 1.3946008948551025e-05</internalNodes>
          <leafValues>
            -2.4219653010368347e-01 3.5543885827064514e-01</leafValues></_>
        <_>
          <internalNodes>
            0 -1 81 -9.0047661215066910e-03</internalNodes>
          <leafValues>
            3.0599096417427063e-01 -3.3451801538467407e-01</leafValues></_>
        <_>
          <internalNodes>
            0 -1 73 -4.1574072092771530e-03</internalNodes>
          <leafValues>
            2.7181640267372131e-01 -3.4278526902198792e-01</leafValues></_></weakClassifiers></_>
    <!-- stage 14 -->
    <_>
      <maxWeakCount>14</maxWeakCount>
      <stageThreshold>-8.1251353025436401e-01</stageThreshold>
      <weakClassifiers>
        <_>
          <internalNodes>
            0 -1 83 4.5795540791004896e-04</internalNodes>
          <leafValues>
            4.5347699522972107e-01 -6.1757105588912964e-01</leafValues></_>
        <_>
          <internalNodes>
            0 -1 117 -7.0594360295217484e-06</internalNodes>
          <leafValues>
            3.9492461085319519e-01 -2.9528790712356567e-01</leafValues></_>
        <_>
          <internalNodes>
            0 -1 82 -1.0072844452224672e-04</internalNodes>
          <leafValues>
            -5.6771183013916016e-01 2.4687971174716949e-01</leafValues></_>
        <_>
          <internalNodes>
            0 -1 15 -4.4484267709776759e-04</internalNodes>
          <leafValues>
            1.9249831140041351e-01 -5.2666902542114258e-01</leafValues></_>
        <_>
          <internalNodes>
            0 -1 138 1.4276276488089934e-05</internalNodes>
          <leafValues>
            -4.4445347785949707e-01 2.2225978970527649e-01</leafValues></_>
        <_>
          <internalNodes>
            0 -1 126 -4.2105861008167267e-02</internalNodes>
          <leafValues>
            7.2646999359130859e-01 -1.3264034688472748e-01</leafValues></_>
        <_>
          <internalNodes>
            0 -1 108 -2.5148034910671413e-04</internalNodes>
          <leafValues>
            1.8811833858489990e-01 -5.0728476047515869e-01</leafValues></_>
        <_>
          <internalNodes>
            0 -1 120 -4.3801247375085950e-04</internalNodes>
          <leafValues>
            2.7551418542861938e-01 -4.0132603049278259e-01</leafValues></_>
        <_>
          <internalNodes>
            0 -1 25 -4.0149845881387591e-04</internalNodes>
          <leafValues>
            2.3895657062530518e-01 -4.0719521045684814e-01</leafValues></_>
        <_>
          <internalNodes>
            0 -1 47 -4.8778988420963287e-02</internalNodes>
          <leafValues>
            6.4348846673965454e-01 -1.8389776349067688e-01</leafValues></_>
        <_>
          <internalNodes>
            0 -1 96 -3.8273124955594540e-03</internalNodes>
          <leafValues>
            6.3286375999450684e-01 -1.3746276497840881e-01</leafValues></_>
        <_>
          <internalNodes>
            0 -1 89 -9.0923812240362167e-04</internalNodes>
          <leafValues>
            3.5267344117164612e-01 -3.1529182195663452e-01</leafValues></_>
        <_>
          <internalNodes>
            0 -1 74 1.6587790101766586e-02</internalNodes>
          <leafValues>
            -1.4727397263050079e-01 6.1207121610641479e-01</leafValues></_>
        <_>
          <internalNodes>
            0 -1 45 -2.6150166988372803e-02</internalNodes>
          <leafValues>
            1.2058661878108978e-01 -8.4262436628341675e-01</leafValues></_></weakClassifiers></_></stages>
  <features>
    <_>
      <rects>
        <_>
          0 8 10 14 -1.</_>
        <_>
          5 8 5 14 2.</_></rects>
      <tilted>0</tilted></_>
    <_>
      <rects>
        <_>
          0 9 12 10 -1.</_>
        <_>
          4 9 4 10 3.</_></rects>
      <tilted>0</tilted></_>
    <_>
      <rects>
        <_>
          0 10 15 2 -1.</_>
        <_>
          5 10 5 2 3.</_></rects>
      <tilted>0</tilted></_>
    <_>
      <rects>
        <_>
          0 10 18 18 -1.</_>
        <_>
          0 10 9 9 2.</_>
        <_>
          9 19 9 9 2.</_></rects>
      <tilted>0</tilted></_>
    <_>
      <rects>
        <_>
          0 18 18 4 -1.</_>
        <_>
          6 18 6 4 3.</_></rects>
      <tilted>0</tilted></_>
    <_>
      <rects>
        <_>
          0 19 15 1 -1.</_>
        <_>
          5 19 5 1 3.</_></rects>
      <tilted>0</tilted></_>
    <_>
      <rects>
        <_>
          3 0 12 18 -1.</_>
        <_>
          3 0 6 9 2.</_>
        <_>
          9 9 6 9 2.</_></rects>
      <tilted>0</tilted></_>
    <_>
      <rects>
        <_>
          3 12 10 14 -1.</_>
        <_>
          3 12 5 7 2.</_>
        <_>
          8 19 5 7 2.</_></rects>
      <tilted>0</tilted></_>
    <_>
      <rects>
        <_>
          4 9 10 11 -1.</_>
        <_>
          9 9 5 11 2.</_></rects>
      <tilted>0</tilted></_>
    <_>
      <rects>
        <_>
          4 9 12 11 -1.</_>
        <_>
          10 9 6 11 2.</_></rects>
      <tilted>0</tilted></_>
    <_>
      <rects>
        <_>
          4 9 24 6 -1.</_>
        <_>
          12 9 8 6 3.</_></rects>
      <tilted>0</tilted></_>
    <_>
      <rects>
        <_>
          4 9 24 9 -1.</_>
        <_>
          12 9 8 9 3.</_></rects>
      <tilted>0</tilted></_>
    <_>
      <rects>
        <_>
          4 13 9 5 -1.</_>
        <_>
          7 13 3 5 3.</_></rects>
      <tilted>0</tilted></_>
    <_>
      <rects>
        <_>
          5 8 4 2 -1.</_>
        <_>
          7 8 2 2 2.</_></rects>
      <tilted>0</tilted></_>
    <_>
      <rects>
        <_>
          5 13 10 3 -1.</_>
        <_>
          5 14 10 1 3.</_></rects>
      <tilted>0</tilted></_>
    <_>
      <rects>
        <_>
          5 14 12 3 -1.</_>
        <_>
          5 15 12 1 3.</_></rects>
      <tilted>0</tilted></_>
    <_>
      <rects>
        <_>
          6 0 20 12 -1.</_>
        <_>
          6 6 20 6 2.</_></rects>
      <tilted>0</tilted></_>
    <_>
      <rects>
        <_>
          6 6 6 6 -1.</_>
        <_>
          6 6 3 3 2.</_>
        <_>
          9 9 3 3 2.</_></rects>
      <tilted>0</tilted></_>
    <_>
      <rects>
        <_>
          6 8 12 14 -1.</_>
        <_>
          12 8 6 14 2.</_></rects>
      <tilted>0</tilted></_>
    <_>
      <rects>
        <_>
          6 8 14 15 -1.</_>
        <_>
          13 8 7 15 2.</_></rects>
      <tilted>0</tilted></_>
    <_>
      <rects>
        <_>
          6 9 21 4 -1.</_>
        <_>
          13 9 7 4 3.</_></rects>
      <tilted>0</tilted></_>
    <_>
      <rects>
        <_>
          6 9 21 6 -1.</_>
        <_>
          13 9 7 6 3.</_></rects>
      <tilted>0</tilted></_>
    <_>
      <rects>
        <_>
          6 10 21 2 -1.</_>
        <_>
          13 10 7 2 3.</_></rects>
      <tilted>0</tilted></_>
    <_>
      <rects>
        <_>
          6 11 9 3 -1.</_>
        <_>
          6 12 9 1 3.</_></rects>
      <tilted>0</tilted></_>
    <_>
      <rects>
        <_>
          6 12 18 11 -1.</_>
        <_>
          12 12 6 11 3.</_></rects>
      <tilted>0</tilted></_>
    <_>
      <rects>
        <_>
          6 12 8 3 -1.</_>
        <_>
          6 13 8 1 3.</_></rects>
      <tilted>0</tilted></_>
    <_>
      <rects>
        <_>
          6 14 22 6 -1.</_>
        <_>
          6 14 11 3 2.</_>
        <_>
          17 17 11 3 2.</_></rects>
      <tilted>0</tilted></_>
    <_>
      <rects>
        <_>
          6 15 17 12 -1.</_>
        <_>
          6 19 17 4 3.</_></rects>
      <tilted>0</tilted></_>
    <_>
      <rects>
        <_>
          7 7 1 4 -1.</_>
        <_>
          7 9 1 2 2.</_></rects>
      <tilted>0</tilted></_>
    <_>
      <rects>
        <_>
          7 7 18 8 -1.</_>
        <_>
          7 11 18 4 2.</_></rects>
      <tilted>0</tilted></_>
    <_>
      <rects>
        <_>
          7 8 2 2 -1.</_>
        <_>
          8 8 1 2 2.</_></rects>
      <tilted>0</tilted></_>
    <_>
      <rects>
        <_>
          7 9 2 12 -1.</_>
        <_>
          7 13 2 4 3.</_></rects>
      <tilted>0</tilted></_>
    <_>
      <rects>
        <_>
          7 9 18 14 -1.</_>
        <_>
          13 9 6 14 3.</_></rects>
      <tilted>0</tilted></_>
    <_>
      <rects>
        <_>
          8 3 2 12 -1.</_>
        <_>
          8 7 2 4 3.</_></rects>
      <tilted>0</tilted></_>
    <_>
      <rects>
        <_>
          8 5 16 18 -1.</_>
        <_>
          8 11 16 6 3.</_></rects>
      <tilted>0</tilted></_>
    <_>
      <rects>
        <_>
          8 9 7 3 -1.</_>
        <_>
          8 10 7 1 3.</_></rects>
      <tilted>0</tilted></_>
    <_>
      <rects>
        <_>
          8 16 16 12 -1.</_>
        <_>
          8 20 16 4 3.</_></rects>
      <tilted>0</tilted></_>
    <_>
      <rects>
        <_>
          8 19 9 2 -1.</_>
        <_>
          11 19 3 2 3.</_></rects>
      <tilted>0</tilted></_>
    <_>
      <rects>
        <_>
          8 24 16 4 -1.</_>
        <_>
          8 26 16 2 2.</_></rects>
      <tilted>0</tilted></_>
    <_>
      <rects>
        <_>
          9 0 2 15 -1.</_>
        <_>
          9 5 2 5 3.</_></rects>
      <tilted>0</tilted></_>
    <_>
      <rects>
        <_>
          9 3 13 12 -1.</_>
        <_>
          9 9 13 6 2.</_></rects>
      <tilted>0</tilted></_>
    <_>
      <rects>
        <_>
          9 7 13 15 -1.</_>
        <_>
          9 12 13 5 3.</_></rects>
      <tilted>0</tilted></_>
    <_>
      <rects>
        <_>
          9 7 15 8 -1.</_>
        <_>
          9 11 15 4 2.</_></rects>
      <tilted>0</tilted></_>
    <_>
      <rects>
        <_>
          9 10 3 12 -1.</_>
        <_>
          9 14 3 4 3.</_></rects>
      <tilted>0</tilted></_>
    <_>
      <rects>
        <_>
          9 10 14 8 -1.</_>
        <_>
          9 14 14 4 2.</_></rects>
      <tilted>0</tilted></_>
    <_>
      <rects>
        <_>
          9 11 18 11 -1.</_>
        <_>
          15 11 6 11 3.</_></rects>
      <tilted>0</tilted></_>
    <_>
      <rects>
        <_>
          9 11 18 13 -1.</_>
        <_>
          15 11 6 13 3.</_></rects>
      <tilted>0</tilted></_>
    <_>
      <rects>
        <_>
          9 12 5 12 -1.</_>
        <_>
          9 16 5 4 3.</_></rects>
      <tilted>0</tilted></_>
    <_>
      <rects>
        <_>
          9 12 15 12 -1.</_>
        <_>
          14 12 5 12 3.</_></rects>
      <tilted>0</tilted></_>
    <_>
      <rects>
        <_>
          9 12 12 11 -1.</_>
        <_>
          15 12 6 11 2.</_></rects>
      <tilted>0</tilted></_>
    <_>
      <rects>
        <_>
          9 13 13 10 -1.</_>
        <_>
          9 18 13 5 2.</_></rects>
      <tilted>0</tilted></_>
    <_>
      <rects>
        <_>
          9 16 3 12 -1.</_>
        <_>
          9 20 3 4 3.</_></rects>
      <tilted>0</tilted></_>
    <_>
      <rects>
        <_>
          9 16 16 12 -1.</_>
        <_>
          9 20 16 4 3.</_></rects>
      <tilted>0</tilted></_>
    <_>
      <rects>
        <_>
          10 5 13 10 -1.</_>
        <_>
          10 10 13 5 2.</_></rects>
      <tilted>0</tilted></_>
    <_>
      <rects>
        <_>
          10 5 13 18 -1.</_>
        <_>
          10 11 13 6 3.</_></rects>
      <tilted>0</tilted></_>
    <_>
      <rects>
        <_>
          10 10 2 2 -1.</_>
        <_>
          10 11 2 1 2.</_></rects>
      <tilted>0</tilted></_>
    <_>
      <rects>
        <_>
          10 10 13 3 -1.</_>
        <_>
          10 11 13 1 3.</_></rects>
      <tilted>0</tilted></_>
    <_>
      <rects>
        <_>
          10 12 2 12 -1.</_>
        <_>
          10 16 2 4 3.</_></rects>
      <tilted>0</tilted></_>
    <_>
      <rects>
        <_>
          10 14 11 10 -1.</_>
        <_>
          10 19 11 5 2.</_></rects>
      <tilted>0</tilted></_>
    <_>
      <rects>
        <_>
          10 15 6 1 -1.</_>
        <_>
          13 15 3 1 2.</_></rects>
      <tilted>0</tilted></_>
    <_>
      <rects>
        <_>
          11 5 8 6 -1.</_>
        <_>
          11 7 8 2 3.</_></rects>
      <tilted>0</tilted></_>
    <_>
      <rects>
        <_>
          11 6 11 3 -1.</_>
        <_>
          11 7 11 1 3.</_></rects>
      <tilted>0</tilted></_>
    <_>
      <rects>
        <_>
          11 8 15 1 -1.</_>
        <_>
          16 8 5 1 3.</_></rects>
      <tilted>0</tilted></_>
    <_>
      <rects>
        <_>
          12 0 8 9 -1.</_>
        <_>
          12 3 8 3 3.</_></rects>
      <tilted>0</tilted></_>
    <_>
      <rects>
        <_>
          12 6 3 7 -1.</_>
        <_>
          13 6 1 7 3.</_></rects>
      <tilted>0</tilted></_>
    <_>
      <rects>
        <_>
          12 12 12 10 -1.</_>
        <_>
          18 12 6 10 2.</_></rects>
      <tilted>0</tilted></_>
    <_>
      <rects>
        <_>
          12 15 6 8 -1.</_>
        <_>
          14 15 2 8 3.</_></rects>
      <tilted>0</tilted></_>
    <_>
      <rects>
        <_>
          13 4 6 12 -1.</_>
        <_>
          15 4 2 12 3.</_></rects>
      <tilted>0</tilted></_>
    <_>
      <rects>
        <_>
          13 12 4 1 -1.</_>
        <_>
          15 12 2 1 2.</_></rects>
      <tilted>0</tilted></_>
    <_>
      <rects>
        <_>
          13 12 5 10 -1.</_>
        <_>
          13 17 5 5 2.</_></rects>
      <tilted>0</tilted></_>
    <_>
      <rects>
        <_>
          13 13 4 1 -1.</_>
        <_>
          15 13 2 1 2.</_></rects>
      <tilted>0</tilted></_>
    <_>
      <rects>
        <_>
          13 13 6 1 -1.</_>
        <_>
          16 13 3 1 2.</_></rects>
      <tilted>0</tilted></_>
    <_>
      <rects>
        <_>
          13 14 1 9 -1.</_>
        <_>
          13 17 1 3 3.</_></rects>
      <tilted>0</tilted></_>
    <_>
      <rects>
        <_>
          13 14 6 6 -1.</_>
        <_>
          13 16 6 2 3.</_></rects>
      <tilted>0</tilted></_>
    <_>
      <rects>
        <_>
          13 15 6 7 -1.</_>
        <_>
          15 15 2 7 3.</_></rects>
      <tilted>0</tilted></_>
    <_>
      <rects>
        <_>
          13 15 6 9 -1.</_>
        <_>
          15 15 2 9 3.</_></rects>
      <tilted>0</tilted></_>
    <_>
      <rects>
        <_>
          13 17 4 4 -1.</_>
        <_>
          13 17 2 2 2.</_>
        <_>
          15 19 2 2 2.</_></rects>
      <tilted>0</tilted></_>
    <_>
      <rects>
        <_>
          13 17 6 6 -1.</_>
        <_>
          15 17 2 6 3.</_></rects>
      <tilted>0</tilted></_>
    <_>
      <rects>
        <_>
          13 21 6 1 -1.</_>
        <_>
          15 21 2 1 3.</_></rects>
      <tilted>0</tilted></_>
    <_>
      <rects>
        <_>
          14 10 4 12 -1.</_>
        <_>
          14 16 4 6 2.</_></rects>
      <tilted>0</tilted></_>
    <_>
      <rects>
        <_>
          14 10 5 12 -1.</_>
        <_>
          14 16 5 6 2.</_></rects>
      <tilted>0</tilted></_>
    <_>
      <rects>
        <_>
          14 10 11 6 -1.</_>
        <_>
          14 12 11 2 3.</_></rects>
      <tilted>0</tilted></_>
    <_>
      <rects>
        <_>
          14 12 4 1 -1.</_>
        <_>
          16 12 2 1 2.</_></rects>
      <tilted>0</tilted></_>
    <_>
      <rects>
        <_>
          14 12 6 1 -1.</_>
        <_>
          16 12 2 1 3.</_></rects>
      <tilted>0</tilted></_>
    <_>
      <rects>
        <_>
          14 13 4 1 -1.</_>
        <_>
          16 13 2 1 2.</_></rects>
      <tilted>0</tilted></_>
    <_>
      <rects>
        <_>
          14 15 2 6 -1.</_>
        <_>
          14 15 1 3 2.</_>
        <_>
          15 18 1 3 2.</_></rects>
      <tilted>0</tilted></_>
    <_>
      <rects>
        <_>
          14 15 3 5 -1.</_>
        <_>
          15 15 1 5 3.</_></rects>
      <tilted>0</tilted></_>
    <_>
      <rects>
        <_>
          14 15 6 7 -1.</_>
        <_>
          16 15 2 7 3.</_></rects>
      <tilted>0</tilted></_>
    <_>
      <rects>
        <_>
          14 15 6 8 -1.</_>
        <_>
          16 15 2 8 3.</_></rects>
      <tilted>0</tilted></_>
    <_>
      <rects>
        <_>
          14 16 3 5 -1.</_>
        <_>
          15 16 1 5 3.</_></rects>
      <tilted>0</tilted></_>
    <_>
      <rects>
        <_>
          14 18 3 1 -1.</_>
        <_>
          15 18 1 1 3.</_></rects>
      <tilted>0</tilted></_>
    <_>
      <rects>
        <_>
          15 6 10 16 -1.</_>
        <_>
          20 6 5 16 2.</_></rects>
      <tilted>0</tilted></_>
    <_>
      <rects>
        <_>
          15 8 10 15 -1.</_>
        <_>
          20 8 5 15 2.</_></rects>
      <tilted>0</tilted></_>
    <_>
      <rects>
        <_>
          15 11 3 2 -1.</_>
        <_>
          15 12 3 1 2.</_></rects>
      <tilted>0</tilted></_>
    <_>
      <rects>
        <_>
          15 12 4 1 -1.</_>
        <_>
          17 12 2 1 2.</_></rects>
      <tilted>0</tilted></_>
    <_>
      <rects>
        <_>
          15 12 3 3 -1.</_>
        <_>
          15 13 3 1 3.</_></rects>
      <tilted>0</tilted></_>
    <_>
      <rects>
        <_>
          15 13 2 8 -1.</_>
        <_>
          16 13 1 8 2.</_></rects>
      <tilted>0</tilted></_>
    <_>
      <rects>
        <_>
          15 13 4 1 -1.</_>
        <_>
          17 13 2 1 2.</_></rects>
      <tilted>0</tilted></_>
    <_>
      <rects>
        <_>
          15 16 3 4 -1.</_>
        <_>
          16 16 1 4 3.</_></rects>
      <tilted>0</tilted></_>
    <_>
      <rects>
        <_>
          15 16 3 5 -1.</_>
        <_>
          16 16 1 5 3.</_></rects>
      <tilted>0</tilted></_>
    <_>
      <rects>
        <_>
          15 17 3 3 -1.</_>
        <_>
          16 17 1 3 3.</_></rects>
      <tilted>0</tilted></_>
    <_>
      <rects>
        <_>
          16 8 7 3 -1.</_>
        <_>
          16 9 7 1 3.</_></rects>
      <tilted>0</tilted></_>
    <_>
      <rects>
        <_>
          16 9 12 11 -1.</_>
        <_>
          22 9 6 11 2.</_></rects>
      <tilted>0</tilted></_>
    <_>
      <rects>
        <_>
          16 9 8 3 -1.</_>
        <_>
          16 10 8 1 3.</_></rects>
      <tilted>0</tilted></_>
    <_>
      <rects>
        <_>
          16 12 2 1 -1.</_>
        <_>
          17 12 1 1 2.</_></rects>
      <tilted>0</tilted></_>
    <_>
      <rects>
        <_>
          16 12 4 1 -1.</_>
        <_>
          18 12 2 1 2.</_></rects>
      <tilted>0</tilted></_>
    <_>
      <rects>
        <_>
          16 12 2 2 -1.</_>
        <_>
          16 13 2 1 2.</_></rects>
      <tilted>0</tilted></_>
    <_>
      <rects>
        <_>
          16 13 2 2 -1.</_>
        <_>
          16 14 2 1 2.</_></rects>
      <tilted>0</tilted></_>
    <_>
      <rects>
        <_>
          16 13 12 3 -1.</_>
        <_>
          16 14 12 1 3.</_></rects>
      <tilted>0</tilted></_>
    <_>
      <rects>
        <_>
          16 15 2 7 -1.</_>
        <_>
          17 15 1 7 2.</_></rects>
      <tilted>0</tilted></_>
    <_>
      <rects>
        <_>
          16 15 4 6 -1.</_>
        <_>
          16 15 2 3 2.</_>
        <_>
          18 18 2 3 2.</_></rects>
      <tilted>0</tilted></_>
    <_>
      <rects>
        <_>
          16 15 6 1 -1.</_>
        <_>
          19 15 3 1 2.</_></rects>
      <tilted>0</tilted></_>
    <_>
      <rects>
        <_>
          16 19 9 1 -1.</_>
        <_>
          19 19 3 1 3.</_></rects>
      <tilted>0</tilted></_>
    <_>
      <rects>
        <_>
          17 11 1 2 -1.</_>
        <_>
          17 12 1 1 2.</_></rects>
      <tilted>0</tilted></_>
    <_>
      <rects>
        <_>
          17 12 2 1 -1.</_>
        <_>
          18 12 1 1 2.</_></rects>
      <tilted>0</tilted></_>
    <_>
      <rects>
        <_>
          17 13 11 3 -1.</_>
        <_>
          17 14 11 1 3.</_></rects>
      <tilted>0</tilted></_>
    <_>
      <rects>
        <_>
          17 14 10 3 -1.</_>
        <_>
          17 15 10 1 3.</_></rects>
      <tilted>0</tilted></_>
    <_>
      <rects>
        <_>
          17 16 6 1 -1.</_>
        <_>
          20 16 3 1 2.</_></rects>
      <tilted>0</tilted></_>
    <_>
      <rects>
        <_>
          18 8 12 3 -1.</_>
        <_>
          22 8 4 3 3.</_></rects>
      <tilted>0</tilted></_>
    <_>
      <rects>
        <_>
          18 11 6 9 -1.</_>
        <_>
          18 14 6 3 3.</_></rects>
      <tilted>0</tilted></_>
    <_>
      <rects>
        <_>
          18 11 7 3 -1.</_>
        <_>
          18 12 7 1 3.</_></rects>
      <tilted>0</tilted></_>
    <_>
      <rects>
        <_>
          18 12 8 3 -1.</_>
        <_>
          18 13 8 1 3.</_></rects>
      <tilted>0</tilted></_>
    <_>
      <rects>
        <_>
          18 19 8 4 -1.</_>
        <_>
          18 19 4 2 2.</_>
        <_>
          22 21 4 2 2.</_></rects>
      <tilted>0</tilted></_>
    <_>
      <rects>
        <_>
          19 1 10 18 -1.</_>
        <_>
          19 1 5 9 2.</_>
        <_>
          24 10 5 9 2.</_></rects>
      <tilted>0</tilted></_>
    <_>
      <rects>
        <_>
          19 9 12 11 -1.</_>
        <_>
          23 9 4 11 3.</_></rects>
      <tilted>0</tilted></_>
    <_>
      <rects>
        <_>
          19 11 10 16 -1.</_>
        <_>
          19 11 5 8 2.</_>
        <_>
          24 19 5 8 2.</_></rects>
      <tilted>0</tilted></_>
    <_>
      <rects>
        <_>
          19 12 4 12 -1.</_>
        <_>
          19 16 4 4 3.</_></rects>
      <tilted>0</tilted></_>
    <_>
      <rects>
        <_>
          19 17 2 6 -1.</_>
        <_>
          19 19 2 2 3.</_></rects>
      <tilted>0</tilted></_>
    <_>
      <rects>
        <_>
          20 9 9 3 -1.</_>
        <_>
          23 9 3 3 3.</_></rects>
      <tilted>0</tilted></_>
    <_>
      <rects>
        <_>
          20 13 3 9 -1.</_>
        <_>
          20 16 3 3 3.</_></rects>
      <tilted>0</tilted></_>
    <_>
      <rects>
        <_>
          21 4 1 4 -1.</_>
        <_>
          21 6 1 2 2.</_></rects>
      <tilted>0</tilted></_>
    <_>
      <rects>
        <_>
          21 9 3 12 -1.</_>
        <_>
          21 13 3 4 3.</_></rects>
      <tilted>0</tilted></_>
    <_>
      <rects>
        <_>
          21 9 4 12 -1.</_>
        <_>
          21 13 4 4 3.</_></rects>
      <tilted>0</tilted></_>
    <_>
      <rects>
        <_>
          21 10 3 12 -1.</_>
        <_>
          21 14 3 4 3.</_></rects>
      <tilted>0</tilted></_>
    <_>
      <rects>
        <_>
          21 13 3 7 -1.</_>
        <_>
          22 13 1 7 3.</_></rects>
      <tilted>0</tilted></_>
    <_>
      <rects>
        <_>
          22 11 1 2 -1.</_>
        <_>
          22 12 1 1 2.</_></rects>
      <tilted>0</tilted></_>
    <_>
      <rects>
        <_>
          22 13 6 4 -1.</_>
        <_>
          24 13 2 4 3.</_></rects>
      <tilted>0</tilted></_>
    <_>
      <rects>
        <_>
          22 15 2 1 -1.</_>
        <_>
          23 15 1 1 2.</_></rects>
      <tilted>0</tilted></_>
    <_>
      <rects>
        <_>
          23 5 1 4 -1.</_>
        <_>
          23 7 1 2 2.</_></rects>
      <tilted>0</tilted></_>
    <_>
      <rects>
        <_>
          25 8 1 4 -1.</_>
        <_>
          25 10 1 2 2.</_></rects>
      <tilted>0</tilted></_></features></cascade>
</opencv_storage>
